{"learner":{"attributes":{"scikit_learn":"{\"_estimator_type\": \"regressor\"}"},"feature_names":["target_fm","temp_c","rel_humidity","wind_speed_ms","hour","month","emc_baseline","temp_mean_3h","rh_mean_3h","temp_mean_6h","rh_mean_6h","precip_1h","precip_3h","precip_6h","precip_24h","hours_since_rain"],"feature_types":["float","float","float","float","int","int","float","float","float","float","float","float","float","float","float","int"],"gradient_booster":{"model":{"cats":{"enc":[],"feature_segments":[],"sorted_idx":[]},"gbtree_model_param":{"num_parallel_tree":"1","num_trees":"300"},"iteration_indptr":[0,1,2,3,4,5,6,7,8,9,10,11,12,13,14,15,16,17,18,19,20,21,22,23,24,25,26,27,28,29,30,31,32,33,34,35,36,37,38,39,40,41,42,43,44,45,46,47,48,49,50,51,52,53,54,55,56,57,58,59,60,61,62,63,64,65,66,67,68,69,70,71,72,73,74,75,76,77,78,79,80,81,82,83,84,85,86,87,88,89,90,91,92,93,94,95,96,97,98,99,100,101,102,103,104,105,106,107,108,109,110,111,112,113,114,115,116,117,118,119,120,121,122,123,124,125,126,127,128,129,130,131,132,133,134,135,136,137,138,139,140,141,142,143,144,145,146,147,148,149,150,151,152,153,154,155,156,157,158,159,160,161,162,163,164,165,166,167,168,169,170,171,172,173,174,175,176,177,178,179,180,181,182,183,184,185,186,187,188,189,190,191,192,193,194,195,196,197,198,199,200,201,202,203,204,205,206,207,208,209,210,211,212,213,214,215,216,217,218,219,220,221,222,223,224,225,226,227,228,229,230,231,232,233,234,235,236,237,238,239,240,241,242,243,244,245,246,247,248,249,250,251,252,253,254,255,256,257,258,259,260,261,262,263,264,265,266,267,268,269,270,271,272,273,274,275,276,277,278,279,280,281,282,283,284,285,286,287,288,289,290,291,292,293,294,295,296,297,298,299,300],"tree_info":[0,0,0,0,0,0,0,0,0,0,0,0,0,0,0,0,0,0,0,0,0,0,0,0,0,0,0,0,0,0,0,0,0,0,0,0,0,0,0,0,0,0,0,0,0,0,0,0,0,0,0,0,0,0,0,0,0,0,0,0,0,0,0,0,0,0,0,0,0,0,0,0,0,0,0,0,0,0,0,0,0,0,0,0,0,0,0,0,0,0,0,0,0,0,0,0,0,0,0,0,0,0,0,0,0,0,0,0,0,0,0,0,0,0,0,0,0,0,0,0,0,0,0,0,0,0,0,0,0,0,0,0,0,0,0,0,0,0,0,0,0,0,0,0,0,0,0,0,0,0,0,0,0,0,0,0,0,0,0,0,0,0,0,0,0,0,0,0,0,0,0,0,0,0,0,0,0,0,0,0,0,0,0,0,0,0,0,0,0,0,0,0,0,0,0,0,0,0,0,0,0,0,0,0,0,0,0,0,0,0,0,0,0,0,0,0,0,0,0,0,0,0,0,0,0,0,0,0,0,0,0,0,0,0,0,0,0,0,0,0,0,0,0,0,0,0,0,0,0,0,0,0,0,0,0,0,0,0,0,0,0,0,0,0,0,0,0,0,0,0,0,0,0,0,0,0,0,0,0,0,0,0,0,0,0,0,0,0,0,0,0,0,0,0,0,0,0,0,0,0],"trees":[{"base_weights":[-3.8798824E-3,3.913289E-1,-2.2224739E-1,3.486349E-1,6.947864E-1,-3.206445E-2,2.2048827E-1,1.7853785E-2,-2.6763124E-2,1.7486824E-2,1.0851144E0,1.7849322E-2,-3.172409E-2,6.554342E-2,1.6095826E-2],"categories":[],"categories_nodes":[],"categories_segments":[],"categories_sizes":[],"default_left":[0,0,0,0,0,0,0,0,0,0,0,0,0,0,0],"id":0,"left_children":[1,3,5,7,9,-1,11,-1,-1,-1,13,-1,-1,-1,-1],"loss_changes":[1.6319539E2,8.4770355E0,2.2611038E2,4.6079254E0,1.0664478E1,0E0,6.94307E1,0E0,0E0,0E0,6.12521E0,0E0,0E0,0E0,0E0],"parents":[2147483647,0,0,1,1,2,2,3,3,4,4,6,6,10,10],"right_children":[2,4,6,8,10,-1,12,-1,-1,-1,14,-1,-1,-1,-1],"split_conditions":[9E0,2.6438196E1,5.1557345E0,1.44E1,6.422245E0,-3.206445E-2,1.5E1,1.7853785E-2,-2.6763124E-2,1.7486824E-2,7.1E0,1.7849322E-2,-3.172409E-2,6.554342E-2,1.6095826E-2],"split_indices":[6,1,3,0,3,0,0,0,0,0,6,0,0,0,0],"split_type":[0,0,0,0,0,0,0,0,0,0,0,0,0,0,0],"sum_hessian":[1.889E3,6.72E2,1.217E3,5.91E2,8.1E1,6.25E2,5.92E2,5.86E2,5E0,4.4E1,3.7E1,5.11E2,8.1E1,2.8E1,9E0],"tree_param":{"num_deleted":"0","num_feature":"16","num_nodes":"15","size_leaf_vector":"1"}},{"base_weights":[-1.0652697E-3,3.775607E-1,-2.0924683E-1,3.3112928E-1,6.9063187E-1,-3.046417E-2,2.1606015E-1,1.6962266E-2,-2.2869617E-1,1.093248E0,1.6664276E-2,2.834829E-1,-2.0245206E-1,1.2743671E-2,-2.5647992E-2,1.4883672E-2,6.2649295E-2,7.5479425E-2,3.1356063E-1,-2.760076E-1,1.797865E-1,1.1181789E-2,-2.2158064E-2,1.6939342E-2,1.2255916E-2,-8.730519E-3,-2.2044357E-2,1.5575803E-2,-2.035303E-2],"categories":[],"categories_nodes":[],"categories_segments":[],"categories_sizes":[],"default_left":[0,0,0,0,0,0,0,0,0,0,0,0,0,0,0,0,0,0,0,0,0,0,0,0,0,0,0,0,0],"id":1,"left_children":[1,3,5,7,9,-1,11,-1,13,15,-1,17,19,-1,-1,-1,-1,21,23,25,27,-1,-1,-1,-1,-1,-1,-1,-1],"loss_changes":[1.4952731E2,9.5542755E0,2.08381E2,2.7491913E0,1.2008747E1,0E0,1.6818438E1,0E0,1.3678913E0,4.7103577E0,0E0,3.1795425E0,2.383231E0,0E0,0E0,0E0,0E0,5.1705413E0,6.887207E-1,1.0932994E0,1.2090774E0,0E0,0E0,0E0,0E0,0E0,0E0,0E0,0E0],"parents":[2147483647,0,0,1,1,2,2,3,3,4,4,6,6,8,8,9,9,11,11,12,12,17,17,18,18,19,19,20,20],"right_children":[2,4,6,8,10,-1,12,-1,14,16,-1,18,20,-1,-1,-1,-1,22,24,26,28,-1,-1,-1,-1,-1,-1,-1,-1],"split_conditions":[4.5E1,2.6438196E1,5.1557345E0,6E-2,3.55E1,-3.046417E-2,7.75E1,1.6962266E-2,-8.417883E0,2.96E1,1.6664276E-2,-6.1678834E0,1.06216E1,1.2743671E-2,-2.5647992E-2,1.4883672E-2,6.2649295E-2,6.21E1,6.55E1,2.1E1,2E-1,1.1181789E-2,-2.2158064E-2,1.6939342E-2,1.2255916E-2,-8.730519E-3,-2.2044357E-2,1.5575803E-2,-2.035303E-2],"split_indices":[2,1,3,13,2,0,10,0,7,2,0,1,3,0,0,0,0,8,10,4,14,0,0,0,0,0,0,0,0],"split_type":[0,0,0,0,0,0,0,0,0,0,0,0,0,0,0,0,0,0,0,0,0,0,0,0,0,0,0,0,0],"sum_hessian":[1.895E3,6.72E2,1.223E3,5.87E2,8.5E1,6.3E2,5.93E2,5.79E2,8E0,3.9E1,4.6E1,5.11E2,8.2E1,3E0,5E0,7E0,3.2E1,6.5E1,4.46E2,6.9E1,1.3E1,5.1E1,1.4E1,3.23E2,1.23E2,4.4E1,2.5E1,1.1E1,2E0],"tree_param":{"num_deleted":"0","num_feature":"16","num_nodes":"29","size_leaf_vector":"1"}},{"base_weights":[6.162104E-3,3.549303E-1,-1.8824793E-1,3.192756E-1,6.42144E-1,-2.8940761E-2,1.9682945E-1,1.6347077E-2,-2.4579328E-2,1.5782457E-2,9.876057E-1,1.626411E-2,-2.9716864E-2,5.919778E-2,1.4441109E-2],"categories":[],"categories_nodes":[],"categories_segments":[],"categories_sizes":[],"default_left":[0,0,0,0,0,0,0,0,0,0,0,0,0,0,0],"id":2,"left_children":[1,3,5,7,9,-1,11,-1,-1,-1,13,-1,-1,-1,-1],"loss_changes":[1.26928185E2,6.656128E0,1.8089307E2,3.8778992E0,7.922039E0,0E0,6.1779625E1,0E0,0E0,0E0,4.4602585E0,0E0,0E0,0E0,0E0],"parents":[2147483647,0,0,1,1,2,2,3,3,4,4,6,6,10,10],"right_children":[2,4,6,8,10,-1,12,-1,-1,-1,14,-1,-1,-1,-1],"split_conditions":[4.5E1,2.6438196E1,5.1557345E0,1.44E1,6.422245E0,-2.8940761E-2,1.5E1,1.6347077E-2,-2.4579328E-2,1.5782457E-2,3.55E1,1.626411E-2,-2.9716864E-2,5.919778E-2,1.4441109E-2],"split_indices":[2,7,3,0,3,0,0,0,0,0,2,0,0,0,0],"split_type":[0,0,0,0,0,0,0,0,0,0,0,0,0,0,0],"sum_hessian":[1.87E3,6.69E2,1.201E3,5.97E2,7.2E1,5.96E2,6.05E2,5.92E2,5E0,3.8E1,3.4E1,5.21E2,8.4E1,2.6E1,8E0],"tree_param":{"num_deleted":"0","num_feature":"16","num_nodes":"15","size_leaf_vector":"1"}},{"base_weights":[-4.442722E-3,3.3734506E-1,-1.8958572E-1,3.033129E-1,6.242303E-1,-2.7498702E-2,1.8782324E-1,1.5530586E-2,-2.1048898E-1,1.4993349E-2,9.5885426E-1,2.4711372E-1,-2.0932388E-1,1.165277E-2,-2.3555188E-2,5.6347515E-2,1.3583667E-2,2.9217717E-1,1.3326621E-1,-2.9806083E-1,2.2395918E-1,1.51921725E-2,-4.4234397E-4,-9.735925E-3,1.0152239E-2,-2.0908946E-2,-5.453441E-3,1.4215191E-2,-1.4013025E-2],"categories":[],"categories_nodes":[],"categories_segments":[],"categories_sizes":[],"default_left":[0,0,0,0,0,0,0,0,0,0,0,0,0,0,0,0,0,0,0,0,0,0,0,0,0,0,0,0,0],"id":3,"left_children":[1,3,5,7,9,-1,11,-1,13,-1,15,17,19,-1,-1,-1,-1,21,23,25,27,-1,-1,-1,-1,-1,-1,-1,-1],"loss_changes":[1.2048507E2,6.342331E0,1.680803E2,2.3154716E0,7.310257E0,0E0,1.4274145E1,0E0,1.1501412E0,0E0,3.6212578E0,2.6596336E0,3.1041625E0,0E0,0E0,0E0,0E0,1.3231316E0,3.4953682E0,1.4526796E0,5.0565636E-1,0E0,0E0,0E0,0E0,0E0,0E0,0E0,0E0],"parents":[2147483647,0,0,1,1,2,2,3,3,4,4,6,6,8,8,10,10,11,11,12,12,17,17,18,18,19,19,20,20],"right_children":[2,4,6,8,10,-1,12,-1,14,-1,16,18,20,-1,-1,-1,-1,22,24,26,28,-1,-1,-1,-1,-1,-1,-1,-1],"split_conditions":[4.5E1,2.6438196E1,5.1557345E0,6E-2,6.422245E0,-2.7498702E-2,7.75E1,1.5530586E-2,-8.417883E0,1.4993349E-2,3.55E1,6.55E1,1.06216E1,1.165277E-2,-2.3555188E-2,5.6347515E-2,1.3583667E-2,1.06216E1,6.57E1,1.6503016E1,2E-1,1.51921725E-2,-4.4234397E-4,-9.735925E-3,1.0152239E-2,-2.0908946E-2,-5.453441E-3,1.4215191E-2,-1.4013025E-2],"split_indices":[2,7,3,13,3,0,10,0,7,0,2,10,3,0,0,0,0,3,2,9,14,0,0,0,0,0,0,0,0],"split_type":[0,0,0,0,0,0,0,0,0,0,0,0,0,0,0,0,0,0,0,0,0,0,0,0,0,0,0,0,0],"sum_hessian":[1.902E3,6.68E2,1.234E3,5.99E2,6.9E1,6.31E2,6.03E2,5.91E2,8E0,3.6E1,3.3E1,5.25E2,7.8E1,3E0,5E0,2.6E1,7E0,3.75E2,1.5E2,6.5E1,1.3E1,3.61E2,1.4E1,2.6E1,1.24E2,3.9E1,2.6E1,1.2E1,1E0],"tree_param":{"num_deleted":"0","num_feature":"16","num_nodes":"29","size_leaf_vector":"1"}},{"base_weights":[-9.42531E-3,3.1990603E-1,-1.8619105E-1,2.83272E-1,5.698417E-1,-2.612633E-2,1.7968336E-1,1.452546E-2,-2.2573723E-2,1.4333794E-2,8.976255E-1,1.4835677E-2,-2.7752852E-2,5.420952E-2,1.3341242E-2],"categories":[],"categories_nodes":[],"categories_segments":[],"categories_sizes":[],"default_left":[0,0,0,0,0,0,0,0,0,0,0,0,0,0,0],"id":4,"left_children":[1,3,5,7,9,-1,11,-1,-1,-1,13,-1,-1,-1,-1],"loss_changes":[1.09502815E2,5.8541718E0,1.5071513E2,3.1887245E0,7.446499E0,0E0,5.0638935E1,0E0,0E0,0E0,4.1827507E0,0E0,0E0,0E0,0E0],"parents":[2147483647,0,0,1,1,2,2,3,3,4,4,6,6,10,10],"right_children":[2,4,6,8,10,-1,12,-1,-1,-1,14,-1,-1,-1,-1],"split_conditions":[4.5E1,2.6438196E1,5.1557345E0,1.41E1,6.422245E0,-2.612633E-2,1.5E1,1.452546E-2,-2.2573723E-2,1.4333794E-2,3.55E1,1.4835677E-2,-2.7752852E-2,5.420952E-2,1.3341242E-2],"split_indices":[2,1,3,0,3,0,0,0,0,0,2,0,0,0,0],"split_type":[0,0,0,0,0,0,0,0,0,0,0,0,0,0,0],"sum_hessian":[1.879E3,6.56E2,1.223E3,5.74E2,8.2E1,6.37E2,5.86E2,5.69E2,5E0,4.5E1,3.7E1,5.06E2,8E1,2.8E1,9E0],"tree_param":{"num_deleted":"0","num_feature":"16","num_nodes":"15","size_leaf_vector":"1"}},{"base_weights":[-3.049898E-3,3.0600154E-1,-1.698054E-1,2.7065775E-1,5.4850286E-1,-2.4821755E-2,1.716573E-1,1.3804783E-2,-2.0767825E-2,1.3625519E-2,8.4528184E-1,1.4107587E-2,-2.6399512E-2,5.1638987E-2,1.2854016E-2],"categories":[],"categories_nodes":[],"categories_segments":[],"categories_sizes":[],"default_left":[0,0,0,0,0,0,0,0,0,0,0,0,0,0,0],"id":5,"left_children":[1,3,5,7,9,-1,11,-1,-1,-1,13,-1,-1,-1,-1],"loss_changes":[9.822809E1,5.576912E0,1.3816165E2,2.297001E0,6.649988E0,0E0,4.6997105E1,0E0,0E0,0E0,4.145952E0,0E0,0E0,0E0,0E0],"parents":[2147483647,0,0,1,1,2,2,3,3,4,4,6,6,10,10],"right_children":[2,4,6,8,10,-1,12,-1,-1,-1,14,-1,-1,-1,-1],"split_conditions":[9E0,2.6438196E1,5.1557345E0,1.44E1,6.422245E0,-2.4821755E-2,1.5E1,1.3804783E-2,-2.0767825E-2,1.3625519E-2,7.1E0,1.4107587E-2,-2.6399512E-2,5.1638987E-2,1.2854016E-2],"split_indices":[6,1,3,0,3,0,0,0,0,0,6,0,0,0,0],"split_type":[0,0,0,0,0,0,0,0,0,0,0,0,0,0,0],"sum_hessian":[1.904E3,6.67E2,1.237E3,5.84E2,8.3E1,6.32E2,6.05E2,5.8E2,4E0,4.4E1,3.9E1,5.23E2,8.2E1,2.9E1,1E1],"tree_param":{"num_deleted":"0","num_feature":"16","num_nodes":"15","size_leaf_vector":"1"}},{"base_weights":[-3.7417032E-3,2.8950185E-1,-1.6323455E-1,2.558353E-1,5.241136E-1,-1.100855E-1,-4.040641E-1,1.3115761E-2,-2.0767825E-2,8.2983494E-1,1.3008368E-2,-6.939919E-2,-2.5040006E-2,-4.6627042E-1,8.280954E-2,1.1841851E-2,4.9003657E-2,-1.4528762E-1,1.3694415E-2,6.5624225E-3,-2.3499431E-2,-2.0245664E-2,1.24686025E-2,1.3499458E-2,-8.959301E-3],"categories":[],"categories_nodes":[],"categories_segments":[],"categories_sizes":[],"default_left":[0,0,0,0,0,0,0,0,0,0,0,0,0,0,0,0,0,0,0,0,0,0,0,0,0],"id":6,"left_children":[1,3,5,7,9,11,13,-1,-1,15,-1,17,-1,19,21,-1,-1,23,-1,-1,-1,-1,-1,-1,-1],"loss_changes":[8.881719E1,5.1500587E0,1.5699345E1,2.6619797E0,6.4817066E0,1.600505E1,6.7622414E0,0E0,0E0,3.1533375E0,0E0,2.387696E1,0E0,4.9935913E-1,2.2131188E0,0E0,0E0,1.0606293E1,0E0,0E0,0E0,0E0,0E0,0E0,0E0],"parents":[2147483647,0,0,1,1,2,2,3,3,4,4,5,5,6,6,9,9,11,11,13,13,14,14,17,17],"right_children":[2,4,6,8,10,12,14,-1,-1,16,-1,18,-1,20,22,-1,-1,24,-1,-1,-1,-1,-1,-1,-1],"split_conditions":[9E0,2.6438196E1,2.0269495E1,1.44E1,7.1E0,1.5E1,9.8E1,1.3115761E-2,-2.0767825E-2,5.92E0,1.3008368E-2,1.3660001E1,-2.5040006E-2,9.059999E0,2.3459955E1,1.1841851E-2,4.9003657E-2,-5.9559693E0,1.3694415E-2,6.5624225E-3,-2.3499431E-2,-2.0245664E-2,1.24686025E-2,1.3499458E-2,-8.959301E-3],"split_indices":[6,1,1,0,6,0,15,0,0,6,0,6,0,6,1,0,0,1,0,0,0,0,0,0,0],"split_type":[0,0,0,0,0,0,0,0,0,0,0,0,0,0,0,0,0,0,0,0,0,0,0,0,0],"sum_hessian":[1.897E3,6.68E2,1.229E3,5.86E2,8.2E1,1.008E3,2.21E2,5.81E2,5E0,3.7E1,4.5E1,9.14E2,9.4E1,1.96E2,2.5E1,8E0,2.9E1,7.49E2,1.65E2,1E0,1.95E2,6E0,1.9E1,5.6E1,6.93E2],"tree_param":{"num_deleted":"0","num_feature":"16","num_nodes":"25","size_leaf_vector":"1"}},{"base_weights":[-4.2202562E-4,-2.0467994E-1,2.0576128E-1,1.2446564E-2,-2.2895128E-2,2.7658463E-1,-2.3900142E-2,5.531311E-1,2.5194868E-1,1.2223746E-2,4.6677712E-2,-1.4004484E-2,1.3064625E-2,-2.1065434E-2,1.1784083E-2],"categories":[],"categories_nodes":[],"categories_segments":[],"categories_sizes":[],"default_left":[0,0,0,0,0,0,0,0,0,0,0,0,0,0,0],"id":7,"left_children":[1,3,5,-1,-1,7,-1,9,11,-1,-1,13,-1,-1,-1],"loss_changes":[8.081786E1,1.10843475E2,4.6379475E1,0E0,0E0,5.760681E0,0E0,7.991165E0,1.9842186E0,0E0,0E0,2.9468446E0,0E0,0E0,0E0],"parents":[2147483647,0,0,1,1,2,2,5,5,7,7,8,8,11,11],"right_children":[2,4,6,-1,-1,8,-1,10,12,-1,-1,14,-1,-1,-1],"split_conditions":[5.096111E0,4.5E1,1.5E1,1.2446564E-2,-2.2895128E-2,3.55E1,-2.3900142E-2,5.5253186E0,5.1557345E0,1.2223746E-2,4.6677712E-2,6.605829E0,1.3064625E-2,-2.1065434E-2,1.1784083E-2],"split_indices":[3,2,0,0,0,2,0,3,3,0,0,1,0,0,0],"split_type":[0,0,0,0,0,0,0,0,0,0,0,0,0,0,0],"sum_hessian":[1.917E3,9.63E2,9.54E2,3.45E2,6.18E2,8.65E2,8.9E1,6.9E1,7.96E2,3.9E1,3E1,2.7E1,7.69E2,1E1,1.7E1],"tree_param":{"num_deleted":"0","num_feature":"16","num_nodes":"15","size_leaf_vector":"1"}},{"base_weights":[3.5162307E-3,2.5963837E-1,-1.4236034E-1,2.309502E-1,4.6453658E-1,-2.1751532E-2,1.623342E-1,1.1830918E-2,-1.8906659E-2,1.1717308E-2,7.2413206E-1,1.2659739E-2,-2.266889E-2,4.448049E-2,1.11021185E-2],"categories":[],"categories_nodes":[],"categories_segments":[],"categories_sizes":[],"default_left":[0,0,0,0,0,0,0,0,0,0,0,0,0,0,0],"id":8,"left_children":[1,3,5,7,9,-1,11,-1,-1,-1,13,-1,-1,-1,-1],"loss_changes":[7.124935E1,3.9603996E0,1.0841831E2,2.1919594E0,4.8498383E0,0E0,3.345738E1,0E0,0E0,0E0,3.0427723E0,0E0,0E0,0E0,0E0],"parents":[2147483647,0,0,1,1,2,2,3,3,4,4,6,6,10,10],"right_children":[2,4,6,8,10,-1,12,-1,-1,-1,14,-1,-1,-1,-1],"split_conditions":[4.5E1,2.6438196E1,5.1557345E0,1.44E1,6.422245E0,-2.1751532E-2,1.5E1,1.1830918E-2,-1.8906659E-2,1.1717308E-2,3.55E1,1.2659739E-2,-2.266889E-2,4.448049E-2,1.11021185E-2],"split_indices":[2,1,3,0,3,0,0,0,0,0,2,0,0,0,0],"split_type":[0,0,0,0,0,0,0,0,0,0,0,0,0,0,0],"sum_hessian":[1.905E3,6.91E2,1.214E3,6.08E2,8.3E1,6.19E2,5.95E2,6.03E2,5E0,4.5E1,3.8E1,5.19E2,7.6E1,2.8E1,1E1],"tree_param":{"num_deleted":"0","num_feature":"16","num_nodes":"15","size_leaf_vector":"1"}},{"base_weights":[1.1504549E-3,2.5098523E-1,-1.3801466E-1,2.2023657E-1,4.5062274E-1,-2.0662213E-2,1.5000077E-1,1.1236945E-2,-1.7394125E-2,1.1150477E-2,7.00023E-1,1.20172E-2,-2.1560008E-2,4.2302147E-2,1.0579962E-2],"categories":[],"categories_nodes":[],"categories_segments":[],"categories_sizes":[],"default_left":[0,0,0,0,0,0,0,0,0,0,0,0,0,0,0],"id":9,"left_children":[1,3,5,7,9,-1,11,-1,-1,-1,13,-1,-1,-1,-1],"loss_changes":[6.550332E1,4.038162E0,9.5979126E1,1.5770912E0,4.8961334E0,0E0,3.1188112E1,0E0,0E0,0E0,2.8164024E0,0E0,0E0,0E0,0E0],"parents":[2147483647,0,0,1,1,2,2,3,3,4,4,6,6,10,10],"right_children":[2,4,6,8,10,-1,12,-1,-1,-1,14,-1,-1,-1,-1],"split_conditions":[9E0,2.6438196E1,5.1557345E0,1.41E1,6.422245E0,-2.0662213E-2,1.5E1,1.1236945E-2,-1.7394125E-2,1.1150477E-2,7.1E0,1.20172E-2,-2.1560008E-2,4.2302147E-2,1.0579962E-2],"split_indices":[6,1,3,0,3,0,0,0,0,0,6,0,0,0,0],"split_type":[0,0,0,0,0,0,0,0,0,0,0,0,0,0,0],"sum_hessian":[1.882E3,6.73E2,1.209E3,5.85E2,8.8E1,6.18E2,5.91E2,5.81E2,4E0,4.7E1,4.1E1,5.12E2,7.9E1,3.1E1,1E1],"tree_param":{"num_deleted":"0","num_feature":"16","num_nodes":"15","size_leaf_vector":"1"}},{"base_weights":[4.2619696E-3,-1.7633739E-1,1.821982E-1,1.0679406E-2,-1.9633513E-2,2.3920427E-1,-2.0451685E-2,4.8722258E-1,2.1649848E-1,1.0510894E-2,4.0411077E-2,-4.659443E-3,1.1227855E-2,1.0169683E-2,-1.8180016E-2],"categories":[],"categories_nodes":[],"categories_segments":[],"categories_sizes":[],"default_left":[0,0,0,0,0,0,0,0,0,0,0,0,0,0,0],"id":10,"left_children":[1,3,5,-1,-1,7,-1,9,11,-1,-1,13,-1,-1,-1],"loss_changes":[6.0671192E1,7.912328E1,3.215017E1,0E0,0E0,4.7826233E0,0E0,6.2322083E0,1.4214821E0,0E0,0E0,2.239638E0,0E0,0E0,0E0],"parents":[2147483647,0,0,1,1,2,2,5,5,7,7,8,8,11,11],"right_children":[2,4,6,-1,-1,8,-1,10,12,-1,-1,14,-1,-1,-1],"split_conditions":[5.096111E0,4.5E1,1.5E1,1.0679406E-2,-1.9633513E-2,3.55E1,-2.0451685E-2,5.5253186E0,5.1557345E0,1.0510894E-2,4.0411077E-2,4.47E1,1.1227855E-2,1.0169683E-2,-1.8180016E-2],"split_indices":[3,2,0,0,0,2,0,3,3,0,0,2,0,0,0],"split_type":[0,0,0,0,0,0,0,0,0,0,0,0,0,0,0],"sum_hessian":[1.886E3,9.36E2,9.5E2,3.34E2,6.02E2,8.67E2,8.3E1,7.1E1,7.96E2,3.9E1,3.2E1,2.8E1,7.68E2,1.8E1,1E1],"tree_param":{"num_deleted":"0","num_feature":"16","num_nodes":"15","size_leaf_vector":"1"}},{"base_weights":[1.3639915E-3,-1.6445765E-1,1.7052524E-1,1.0147853E-2,-1.865149E-2,2.2510044E-1,-1.9512547E-2,4.3935558E-1,2.0526335E-1,1.0012929E-2,3.8370807E-2,-2.8844189E-2,1.0648085E-2,9.587045E-3,-1.7353652E-2],"categories":[],"categories_nodes":[],"categories_segments":[],"categories_sizes":[],"default_left":[0,0,0,0,0,0,0,0,0,0,0,0,0,0,0],"id":11,"left_children":[1,3,5,-1,-1,7,-1,9,11,-1,-1,13,-1,-1,-1],"loss_changes":[5.3436382E1,7.379613E1,2.8947868E1,0E0,0E0,3.5649872E0,0E0,5.4938765E0,1.428112E0,0E0,0E0,1.891658E0,0E0,0E0,0E0],"parents":[2147483647,0,0,1,1,2,2,5,5,7,7,8,8,11,11],"right_children":[2,4,6,-1,-1,8,-1,10,12,-1,-1,14,-1,-1,-1],"split_conditions":[5.096111E0,4.5E1,1.5E1,1.0147853E-2,-1.865149E-2,3.55E1,-1.9512547E-2,5.5253186E0,5.1557345E0,1.0012929E-2,3.8370807E-2,4.47E1,1.0648085E-2,9.587045E-3,-1.7353652E-2],"split_indices":[3,2,0,0,0,2,0,3,3,0,0,2,0,0,0],"split_type":[0,0,0,0,0,0,0,0,0,0,0,0,0,0,0],"sum_hessian":[1.903E3,9.61E2,9.42E2,3.48E2,6.13E2,8.59E2,8.3E1,7.1E1,7.88E2,4.2E1,2.9E1,2.5E1,7.63E2,1.5E1,1E1],"tree_param":{"num_deleted":"0","num_feature":"16","num_nodes":"15","size_leaf_vector":"1"}},{"base_weights":[1.2183187E-3,2.1549146E-1,-1.1668586E-1,1.8862106E-1,3.9757165E-1,-1.7727071E-2,1.2731057E-1,9.626266E-3,-1.5099791E-2,9.530822E-3,6.049159E-1,1.035347E-2,-1.8599762E-2,3.6567867E-2,9.104696E-3],"categories":[],"categories_nodes":[],"categories_segments":[],"categories_sizes":[],"default_left":[0,0,0,0,0,0,0,0,0,0,0,0,0,0,0],"id":12,"left_children":[1,3,5,7,9,-1,11,-1,-1,-1,13,-1,-1,-1,-1],"loss_changes":[4.7546158E1,3.1932468E0,7.050073E1,1.1767864E0,3.5321264E0,0E0,2.3971458E1,0E0,0E0,0E0,2.112238E0,0E0,0E0,0E0,0E0],"parents":[2147483647,0,0,1,1,2,2,3,3,4,4,6,6,10,10],"right_children":[2,4,6,8,10,-1,12,-1,-1,-1,14,-1,-1,-1,-1],"split_conditions":[4.5E1,2.6438196E1,5.1557345E0,1.44E1,6.422245E0,-1.7727071E-2,1.5E1,9.626266E-3,-1.5099791E-2,9.530822E-3,3.55E1,1.035347E-2,-1.8599762E-2,3.6567867E-2,9.104696E-3],"split_indices":[2,1,3,0,3,0,0,0,0,0,2,0,0,0,0],"split_type":[0,0,0,0,0,0,0,0,0,0,0,0,0,0,0],"sum_hessian":[1.88E3,6.67E2,1.213E3,5.83E2,8.4E1,6.14E2,5.99E2,5.79E2,4E0,4.3E1,4.1E1,5.17E2,8.2E1,3.1E1,1E1],"tree_param":{"num_deleted":"0","num_feature":"16","num_nodes":"15","size_leaf_vector":"1"}},{"base_weights":[2.3927868E-3,2.0281127E-1,-1.08898446E-1,1.7929696E-1,3.639595E-1,-1.6839717E-2,1.1954505E-1,9.147236E-3,-1.4495799E-2,5.686293E-1,9.101429E-3,9.843955E-3,-1.7602777E-2,8.617789E-3,3.4748767E-2],"categories":[],"categories_nodes":[],"categories_segments":[],"categories_sizes":[],"default_left":[0,0,0,0,0,0,0,0,0,0,0,0,0,0,0],"id":13,"left_children":[1,3,5,7,9,-1,11,-1,-1,13,-1,-1,-1,-1,-1],"loss_changes":[4.2668903E1,2.5228252E0,6.40757E1,1.076561E0,3.0987692E0,0E0,2.2498842E1,0E0,0E0,1.8829203E0,0E0,0E0,0E0,0E0,0E0],"parents":[2147483647,0,0,1,1,2,2,3,3,4,4,6,6,9,9],"right_children":[2,4,6,8,10,-1,12,-1,-1,14,-1,-1,-1,-1,-1],"split_conditions":[4.5E1,2.6438196E1,5.1557345E0,1.44E1,3.55E1,-1.6839717E-2,1.5E1,9.147236E-3,-1.4495799E-2,2.96E1,9.101429E-3,9.843955E-3,-1.7602777E-2,8.617789E-3,3.4748767E-2],"split_indices":[2,1,3,0,2,0,0,0,0,2,0,0,0,0,0],"split_type":[0,0,0,0,0,0,0,0,0,0,0,0,0,0,0],"sum_hessian":[1.911E3,6.82E2,1.229E3,5.97E2,8.5E1,6.15E2,6.14E2,5.93E2,4E0,3.9E1,4.6E1,5.28E2,8.6E1,1E1,2.9E1],"tree_param":{"num_deleted":"0","num_feature":"16","num_nodes":"15","size_leaf_vector":"1"}},{"base_weights":[-4.6690536E-4,1.9078626E-1,-1.0598551E-1,1.7027912E-1,3.3831027E-1,-1.4149056E-1,5.662202E-2,8.690207E-3,-1.3915968E-2,5.303668E-1,8.643957E-3,-5.8017507E-2,-2.374047E-1,9.0705E-3,-1.6401699E-2,8.221062E-3,3.2990627E-2,-1.48566E-1,-1.9317989E-3,-2.547934E-1,4.308292E-2,4.25466E-3,-1.2641546E-2,9.323092E-3,-1.2737239E-3,-5.5778925E-3,-1.3505185E-2,-1.3737172E-2,8.105404E-3],"categories":[],"categories_nodes":[],"categories_segments":[],"categories_sizes":[],"default_left":[0,0,0,0,0,0,0,0,0,0,0,0,0,0,0,0,0,0,0,0,0,0,0,0,0,0,0,0,0],"id":14,"left_children":[1,3,5,7,9,11,13,-1,-1,15,-1,17,19,-1,-1,-1,-1,21,23,25,27,-1,-1,-1,-1,-1,-1,-1,-1],"loss_changes":[3.814169E1,1.9753933E0,7.040002E0,9.845123E-1,2.4818535E0,7.9924717E0,1.0571605E1,0E0,0E0,1.6442051E0,0E0,2.7217758E0,2.2789288E0,0E0,0E0,0E0,0E0,5.0158186E0,1.4772664E0,9.303932E-1,1.1037593E0,0E0,0E0,0E0,0E0,0E0,0E0,0E0,0E0],"parents":[2147483647,0,0,1,1,2,2,3,3,4,4,5,5,6,6,9,9,11,11,12,12,17,17,18,18,19,19,20,20],"right_children":[2,4,6,8,10,12,14,-1,-1,16,-1,18,20,-1,-1,-1,-1,22,24,26,28,-1,-1,-1,-1,-1,-1,-1,-1],"split_conditions":[9E0,2.6438196E1,1.39E1,1.44E1,7.1E0,1.2352503E1,1.49E1,8.690207E-3,-1.3915968E-2,5.92E0,8.643957E-3,5.230829E0,9.8E1,9.0705E-3,-1.6401699E-2,8.221062E-3,3.2990627E-2,-5.9559693E0,6.230829E0,4.64E1,2.3459955E1,4.25466E-3,-1.2641546E-2,9.323092E-3,-1.2737239E-3,-5.5778925E-3,-1.3505185E-2,-1.3737172E-2,8.105404E-3],"split_indices":[6,1,6,0,6,1,0,0,0,6,0,1,15,0,0,0,0,7,1,10,1,0,0,0,0,0,0,0,0],"split_type":[0,0,0,0,0,0,0,0,0,0,0,0,0,0,0,0,0,0,0,0,0,0,0,0,0,0,0,0,0],"sum_hessian":[1.888E3,6.71E2,1.217E3,5.91E2,8E1,9.99E2,2.18E2,5.87E2,4E0,3.6E1,4.4E1,5.35E2,4.64E2,1.65E2,5.3E1,1E1,2.6E1,2.04E2,3.31E2,4.37E2,2.7E1,6.3E1,1.41E2,3.6E1,2.95E2,4.3E1,3.94E2,7E0,2E1],"tree_param":{"num_deleted":"0","num_feature":"16","num_nodes":"29","size_leaf_vector":"1"}},{"base_weights":[-3.9969166E-4,1.8338235E-1,-1.0005271E-1,1.6086777E-1,3.29564E-1,-6.558654E-2,-2.5570148E-1,8.256319E-3,-1.3915968E-2,5.101557E-1,8.234018E-3,-4.160958E-2,-1.593895E-2,-2.9399416E-1,2.4214664E-2,7.91323E-3,3.1495746E-2,-9.0491414E-2,8.592773E-3,4.7406196E-3,-1.4822453E-2,-1.3344682E-2,7.7001336E-3,8.775368E-3,-5.6169806E-3],"categories":[],"categories_nodes":[],"categories_segments":[],"categories_sizes":[],"default_left":[0,0,0,0,0,0,0,0,0,0,0,0,0,0,0,0,0,0,0,0,0,0,0,0,0],"id":15,"left_children":[1,3,5,7,9,11,13,-1,-1,15,-1,17,-1,19,21,-1,-1,23,-1,-1,-1,-1,-1,-1,-1],"loss_changes":[3.5108807E1,2.165266E0,6.6514482E0,1.1419697E0,2.566105E0,6.1728663E0,2.4188356E0,0E0,0E0,1.6702805E0,0E0,9.740562E0,0E0,2.1709442E-1,1.0990086E0,0E0,0E0,4.430716E0,0E0,0E0,0E0,0E0,0E0,0E0,0E0],"parents":[2147483647,0,0,1,1,2,2,3,3,4,4,5,5,6,6,9,9,11,11,13,13,14,14,17,17],"right_children":[2,4,6,8,10,12,14,-1,-1,16,-1,18,-1,20,22,-1,-1,24,-1,-1,-1,-1,-1,-1,-1],"split_conditions":[4.5E1,2.6438196E1,2.0269495E1,1.44E1,3.55E1,1.5E1,9.8E1,8.256319E-3,-1.3915968E-2,2.96E1,8.234018E-3,6.83E1,-1.593895E-2,4.53E1,2.3459955E1,7.91323E-3,3.1495746E-2,-5.9559693E0,8.592773E-3,4.7406196E-3,-1.4822453E-2,-1.3344682E-2,7.7001336E-3,8.775368E-3,-5.6169806E-3],"split_indices":[2,1,1,0,2,0,15,0,0,2,0,2,0,2,1,0,0,1,0,0,0,0,0,0,0],"split_type":[0,0,0,0,0,0,0,0,0,0,0,0,0,0,0,0,0,0,0,0,0,0,0,0,0],"sum_hessian":[1.915E3,6.73E2,1.242E3,5.85E2,8.8E1,1.018E3,2.24E2,5.8E2,5E0,4.1E1,4.7E1,9.31E2,8.7E1,1.97E2,2.7E1,1.1E1,3E1,7.58E2,1.73E2,1E0,1.96E2,8E0,1.9E1,5.7E1,7.01E2],"tree_param":{"num_deleted":"0","num_feature":"16","num_nodes":"25","size_leaf_vector":"1"}},{"base_weights":[-2.879799E-4,-1.3488427E-1,1.3868812E-1,7.8608785E-3,-3.00411E-1,1.8358292E-1,-1.5277672E-2,-1.5432424E-2,-1.4096485E-2,3.507394E-1,1.6836554E-1,7.786969E-3,2.9952405E-2,-3.589984E-2,1.7583668E-1,-1.4802754E-2,7.4925455E-3,7.8032017E-3,9.233814E-3],"categories":[],"categories_nodes":[],"categories_segments":[],"categories_sizes":[],"default_left":[0,0,0,0,0,0,0,0,0,0,0,0,0,0,0,0,0,0,0],"id":16,"left_children":[1,3,5,-1,7,9,-1,-1,-1,11,13,-1,-1,15,17,-1,-1,-1,-1],"loss_changes":[3.505442E1,4.6077057E1,1.8444586E1,0E0,5.542755E-3,2.0725555E0,0E0,0E0,0E0,3.2476988E0,1.1814079E0,0E0,0E0,1.3974369E0,1.0103989E-1,0E0,0E0,0E0,0E0],"parents":[2147483647,0,0,1,1,2,2,4,4,5,5,9,9,10,10,13,13,14,14],"right_children":[2,4,6,-1,8,10,-1,-1,-1,12,14,-1,-1,16,18,-1,-1,-1,-1],"split_conditions":[5.096111E0,4.5E1,1.5E1,7.8608785E-3,1.8841028E1,3.55E1,-1.5277672E-2,-1.5432424E-2,-1.4096485E-2,5.5253186E0,5.1557345E0,7.786969E-3,2.9952405E-2,6.605829E0,4.53E1,-1.4802754E-2,7.4925455E-3,7.8032017E-3,9.233814E-3],"split_indices":[3,2,0,0,1,2,0,0,0,3,3,0,0,1,2,0,0,0,0],"split_type":[0,0,0,0,0,0,0,0,0,0,0,0,0,0,0,0,0,0,0],"sum_hessian":[1.872E3,9.51E2,9.21E2,3.44E2,6.07E2,8.37E2,8.4E1,4.09E2,1.98E2,6.8E1,7.69E2,3.9E1,2.9E1,2.7E1,7.42E2,1.1E1,1.6E1,2.35E2,5.07E2],"tree_param":{"num_deleted":"0","num_feature":"16","num_nodes":"19","size_leaf_vector":"1"}},{"base_weights":[-2.6756544E-3,-1.302902E-1,1.300797E-1,7.4688657E-3,-2.8560075E-1,1.7452374E-1,-1.457983E-2,-1.4677258E-2,-1.3395242E-2,3.3822128E-1,1.6044188E-1,7.381969E-3,2.8485734E-2,-2.4225166E-2,1.6694534E-1,-1.4007564E-2,7.1399547E-3,7.4176453E-3,8.763527E-3],"categories":[],"categories_nodes":[],"categories_segments":[],"categories_sizes":[],"default_left":[0,0,0,0,0,0,0,0,0,0,0,0,0,0,0,0,0,0,0],"id":17,"left_children":[1,3,5,-1,7,9,-1,-1,-1,11,13,-1,-1,15,17,-1,-1,-1,-1],"loss_changes":[3.1765347E1,4.156683E1,1.7273865E1,0E0,7.8125E-3,1.8636322E0,0E0,0E0,0E0,2.783587E0,9.263935E-1,0E0,0E0,1.1941439E0,8.8848114E-2,0E0,0E0,0E0,0E0],"parents":[2147483647,0,0,1,1,2,2,4,4,5,5,9,9,10,10,13,13,14,14],"right_children":[2,4,6,-1,8,10,-1,-1,-1,12,14,-1,-1,16,18,-1,-1,-1,-1],"split_conditions":[5.096111E0,4.5E1,1.5E1,7.4688657E-3,1.8841028E1,3.55E1,-1.457983E-2,-1.4677258E-2,-1.3395242E-2,5.5253186E0,5.1557345E0,7.381969E-3,2.8485734E-2,6.605829E0,4.53E1,-1.4007564E-2,7.1399547E-3,7.4176453E-3,8.763527E-3],"split_indices":[3,2,0,0,1,2,0,0,0,3,3,0,0,1,2,0,0,0,0],"split_type":[0,0,0,0,0,0,0,0,0,0,0,0,0,0,0,0,0,0,0],"sum_hessian":[1.873E3,9.55E2,9.18E2,3.41E2,6.14E2,8.31E2,8.7E1,4.13E2,2.01E2,6.4E1,7.67E2,3.6E1,2.8E1,2.6E1,7.41E2,1E1,1.6E1,2.35E2,5.06E2],"tree_param":{"num_deleted":"0","num_feature":"16","num_nodes":"19","size_leaf_vector":"1"}},{"base_weights":[5.467747E-4,-1.1938597E-1,1.23678856E-1,7.0968927E-3,-2.7109244E-1,1.6596873E-1,-1.3808004E-2,-1.3937498E-2,-1.272618E-2,3.1277794E-1,1.5235765E-1,7.060115E-3,2.7127892E-2,-1.6041622E-3,1.5789504E-1,-1.32371485E-2,6.848719E-3,7.0433593E-3,8.290603E-3],"categories":[],"categories_nodes":[],"categories_segments":[],"categories_sizes":[],"default_left":[0,0,0,0,0,0,0,0,0,0,0,0,0,0,0,0,0,0,0],"id":18,"left_children":[1,3,5,-1,7,9,-1,-1,-1,11,13,-1,-1,15,17,-1,-1,-1,-1],"loss_changes":[2.8043612E1,3.8176506E1,1.5889701E1,0E0,6.3209534E-3,1.6468449E0,0E0,0E0,0E0,2.722538E0,6.6353416E-1,0E0,0E0,1.0572939E0,7.7884674E-2,0E0,0E0,0E0,0E0],"parents":[2147483647,0,0,1,1,2,2,4,4,5,5,9,9,10,10,13,13,14,14],"right_children":[2,4,6,-1,8,10,-1,-1,-1,12,14,-1,-1,16,18,-1,-1,-1,-1],"split_conditions":[5.096111E0,4.5E1,1.5E1,7.0968927E-3,1.8841028E1,3.55E1,-1.3808004E-2,-1.3937498E-2,-1.272618E-2,5.5253186E0,5.1557345E0,7.060115E-3,2.7127892E-2,6.605829E0,4.53E1,-1.32371485E-2,6.848719E-3,7.0433593E-3,8.290603E-3],"split_indices":[3,2,0,0,1,2,0,0,0,3,3,0,0,1,2,0,0,0,0],"split_type":[0,0,0,0,0,0,0,0,0,0,0,0,0,0,0,0,0,0,0],"sum_hessian":[1.897E3,9.61E2,9.36E2,3.53E2,6.08E2,8.47E2,8.9E1,4.05E2,2.03E2,7E1,7.77E2,4.1E1,2.9E1,2.7E1,7.5E2,9E0,1.8E1,2.44E2,5.06E2],"tree_param":{"num_deleted":"0","num_feature":"16","num_nodes":"19","size_leaf_vector":"1"}},{"base_weights":[2.2094029E-3,-1.1155547E-1,1.1940076E-1,6.743133E-3,-2.577447E-1,1.5684712E-1,5.572198E-3,-1.3244552E-2,-1.2087232E-2,3.0301315E-1,1.4009888E-1,4.844361E-2,-8.6039364E-2,6.705393E-3,2.583147E-2,-2.8584095E-2,1.4712812E-1,-1.2720668E-1,8.72545E-2,-1.3094397E-1,4.175027E-2,-1.2769169E-2,6.4563453E-3,3.9978074E-3,7.5811627E-3,6.0206363E-3,-8.020471E-3,-6.376691E-3,5.6104953E-3,-4.808137E-3,-1.1296726E-2,7.103474E-3,-1.0800307E-2],"categories":[],"categories_nodes":[],"categories_segments":[],"categories_sizes":[],"default_left":[0,0,0,0,0,0,0,0,0,0,0,0,0,0,0,0,0,0,0,0,0,0,0,0,0,0,0,0,0,0,0,0,0],"id":19,"left_children":[1,3,5,-1,7,9,11,-1,-1,13,15,17,19,-1,-1,21,23,25,27,29,31,-1,-1,-1,-1,-1,-1,-1,-1,-1,-1,-1,-1],"loss_changes":[2.514463E1,3.450942E1,3.9589539E0,0E0,4.6844482E-3,1.6687164E0,9.114246E-1,0E0,0E0,2.4924612E0,7.500181E-1,1.0882081E0,4.3010432E-1,0E0,0E0,9.6296406E-1,1.702528E-1,2.5774288E-1,7.111272E-1,1.5998739E-1,5.4784626E-1,0E0,0E0,0E0,0E0,0E0,0E0,0E0,0E0,0E0,0E0,0E0,0E0],"parents":[2147483647,0,0,1,1,2,2,4,4,5,5,6,6,9,9,10,10,11,11,12,12,15,15,16,16,17,17,18,18,19,19,20,20],"right_children":[2,4,6,-1,8,10,12,-1,-1,14,16,18,20,-1,-1,22,24,26,28,30,32,-1,-1,-1,-1,-1,-1,-1,-1,-1,-1,-1,-1],"split_conditions":[5.096111E0,4.5E1,6.55E1,6.743133E-3,1.8841028E1,3.55E1,7.77E1,-1.3244552E-2,-1.2087232E-2,5.5253186E0,5.1557345E0,-6.1678834E0,1.7403528E1,6.705393E-3,2.583147E-2,6.605829E0,-7.7303834E0,-8.605383E0,6.57E1,2.2E1,1.4E-1,-1.2769169E-2,6.4563453E-3,3.9978074E-3,7.5811627E-3,6.0206363E-3,-8.020471E-3,-6.376691E-3,5.6104953E-3,-4.808137E-3,-1.1296726E-2,7.103474E-3,-1.0800307E-2],"split_indices":[3,2,10,0,1,2,10,0,0,3,3,1,1,0,0,1,1,7,2,4,14,0,0,0,0,0,0,0,0,0,0,0,0],"split_type":[0,0,0,0,0,0,0,0,0,0,0,0,0,0,0,0,0,0,0,0,0,0,0,0,0,0,0,0,0,0,0,0,0],"sum_hessian":[1.884E3,9.56E2,9.28E2,3.56E2,6E2,6.98E2,2.3E2,4.04E2,1.96E2,7E1,6.28E2,1.57E2,7.3E1,4E1,3E1,2.5E1,6.03E2,2.8E1,1.29E2,5.4E1,1.9E1,1E1,1.5E1,3.9E1,5.64E2,3E0,2.5E1,1.3E1,1.16E2,4.1E1,1.3E1,1.4E1,5E0],"tree_param":{"num_deleted":"0","num_feature":"16","num_nodes":"33","size_leaf_vector":"1"}},{"base_weights":[-3.3268705E-4,-1.1013376E-1,1.1167638E-1,6.4067203E-3,-2.449478E-1,1.5131775E-1,-1.2875641E-2,-1.2576177E-2,-1.1495232E-2,2.8832075E-1,1.3871758E-1,6.3783E-3,2.458156E-2,-1.2034959E-2,1.4369893E-1,-1.2066864E-2,6.1778347E-3,6.330562E-3,7.5607295E-3],"categories":[],"categories_nodes":[],"categories_segments":[],"categories_sizes":[],"default_left":[0,0,0,0,0,0,0,0,0,0,0,0,0,0,0,0,0,0,0],"id":20,"left_children":[1,3,5,-1,7,9,-1,-1,-1,11,13,-1,-1,15,17,-1,-1,-1,-1],"loss_changes":[2.3478249E1,3.0996893E1,1.3869198E1,0E0,3.1089783E-3,1.4342327E0,0E0,0E0,0E0,2.2577858E0,5.904751E-1,0E0,0E0,8.3819747E-1,7.832909E-2,0E0,0E0,0E0,0E0],"parents":[2147483647,0,0,1,1,2,2,4,4,5,5,9,9,10,10,13,13,14,14],"right_children":[2,4,6,-1,8,10,-1,-1,-1,12,14,-1,-1,16,18,-1,-1,-1,-1],"split_conditions":[5.096111E0,4.5E1,1.5E1,6.4067203E-3,1.8841028E1,3.55E1,-1.2875641E-2,-1.2576177E-2,-1.1495232E-2,5.5253186E0,5.1557345E0,6.3783E-3,2.458156E-2,6.605829E0,4.53E1,-1.2066864E-2,6.1778347E-3,6.330562E-3,7.5607295E-3],"split_indices":[3,2,0,0,1,2,0,0,0,3,3,0,0,1,2,0,0,0,0],"split_type":[0,0,0,0,0,0,0,0,0,0,0,0,0,0,0,0,0,0,0],"sum_hessian":[1.907E3,9.63E2,9.44E2,3.48E2,6.15E2,8.53E2,9.1E1,4.17E2,1.98E2,7E1,7.83E2,4E1,3E1,2.5E1,7.58E2,9E0,1.6E1,2.37E2,5.21E2],"tree_param":{"num_deleted":"0","num_feature":"16","num_nodes":"19","size_leaf_vector":"1"}},{"base_weights":[1.2778379E-3,-1.02390476E-1,1.0670189E-1,6.078131E-3,-2.3283036E-1,1.4313631E-1,-1.2246124E-2,-1.1958837E-2,-1.0920403E-2,2.7231783E-1,1.3164309E-1,6.056935E-3,2.3240639E-2,-6.5944977E-3,1.3636851E-1,-1.1523855E-2,5.907554E-3,6.018646E-3,7.190323E-3],"categories":[],"categories_nodes":[],"categories_segments":[],"categories_sizes":[],"default_left":[0,0,0,0,0,0,0,0,0,0,0,0,0,0,0,0,0,0,0],"id":21,"left_children":[1,3,5,-1,7,9,-1,-1,-1,11,13,-1,-1,15,17,-1,-1,-1,-1],"loss_changes":[2.0809067E1,2.8072224E1,1.2128862E1,0E0,3.3187866E-3,1.2350636E0,0E0,0E0,0E0,1.9516773E0,5.15645E-1,0E0,0E0,7.81297E-1,7.334709E-2,0E0,0E0,0E0,0E0],"parents":[2147483647,0,0,1,1,2,2,4,4,5,5,9,9,10,10,13,13,14,14],"right_children":[2,4,6,-1,8,10,-1,-1,-1,12,14,-1,-1,16,18,-1,-1,-1,-1],"split_conditions":[5.096111E0,9E0,1.5E1,6.078131E-3,1.8841028E1,7.1E0,-1.2246124E-2,-1.1958837E-2,-1.0920403E-2,5.5253186E0,5.1557345E0,6.056935E-3,2.3240639E-2,6.605829E0,9.059999E0,-1.1523855E-2,5.907554E-3,6.018646E-3,7.190323E-3],"split_indices":[3,6,0,0,1,6,0,0,0,3,3,0,0,1,6,0,0,0,0],"split_type":[0,0,0,0,0,0,0,0,0,0,0,0,0,0,0,0,0,0,0],"sum_hessian":[1.902E3,9.59E2,9.43E2,3.53E2,6.06E2,8.55E2,8.8E1,4.1E2,1.96E2,6.8E1,7.87E2,3.9E1,2.9E1,2.6E1,7.61E2,9E0,1.7E1,2.47E2,5.14E2],"tree_param":{"num_deleted":"0","num_feature":"16","num_nodes":"19","size_leaf_vector":"1"}},{"base_weights":[-7.868528E-5,-9.947443E-2,1.014141E-1,5.7842867E-3,-2.2097133E-1,1.3257374E-1,6.31028E-3,-1.13587E-2,-1.0376423E-2,2.5446665E-1,1.19348995E-1,-1.6364228E-2,1.2429034E-1,5.780031E-3,2.2100989E-2,-1.9945195E-2,1.2522253E-1,7.327681E-3,-1.1013046E-1,-6.75849E-3,1.3495602E-1,-1.1116446E-2,5.6091114E-3,6.4311954E-3,1.5671134E-3,-5.419718E-3,2.1656095E-3,-8.3028255E-3,-3.0786986E-3,8.096913E-3,5.4599103E-3],"categories":[],"categories_nodes":[],"categories_segments":[],"categories_sizes":[],"default_left":[0,0,0,0,0,0,0,0,0,0,0,0,0,0,0,0,0,0,0,0,0,0,0,0,0,0,0,0,0,0,0],"id":22,"left_children":[1,3,5,-1,7,9,11,-1,-1,13,15,17,19,-1,-1,21,23,25,27,-1,29,-1,-1,-1,-1,-1,-1,-1,-1,-1,-1],"loss_changes":[1.9328514E1,2.5330336E1,2.808467E0,0E0,4.4670105E-3,1.1205997E0,6.3069177E-1,0E0,0E0,1.7459903E0,5.310221E-1,4.4066423E-1,1.2340003E-1,0E0,0E0,7.469332E-1,1.9394779E-1,6.668027E-1,9.839818E-2,0E0,8.0317855E-3,0E0,0E0,0E0,0E0,0E0,0E0,0E0,0E0,0E0,0E0],"parents":[2147483647,0,0,1,1,2,2,4,4,5,5,6,6,9,9,10,10,11,11,12,12,15,15,16,16,17,17,18,18,20,20],"right_children":[2,4,6,-1,8,10,12,-1,-1,14,16,18,20,-1,-1,22,24,26,28,-1,30,-1,-1,-1,-1,-1,-1,-1,-1,-1,-1],"split_conditions":[5.096111E0,4.5E1,6.55E1,5.7842867E-3,1.8841028E1,3.55E1,3.5E1,-1.13587E-2,-1.0376423E-2,5.5253186E0,5.1557345E0,2.2E1,-6.6678834E0,5.780031E-3,2.2100989E-2,6.605829E0,1.06216E1,1.5E1,8.621018E0,-6.75849E-3,6.73E1,-1.1116446E-2,5.6091114E-3,6.4311954E-3,1.5671134E-3,-5.419718E-3,2.1656095E-3,-8.3028255E-3,-3.0786986E-3,8.096913E-3,5.4599103E-3],"split_indices":[3,2,10,0,1,2,15,0,0,3,3,4,1,0,0,1,3,4,3,0,2,0,0,0,0,0,0,0,0,0,0],"split_type":[0,0,0,0,0,0,0,0,0,0,0,0,0,0,0,0,0,0,0,0,0,0,0,0,0,0,0,0,0,0,0],"sum_hessian":[1.914E3,9.67E2,9.47E2,3.49E2,6.18E2,7.13E2,2.34E2,4.12E2,2.06E2,6.8E1,6.45E2,1.97E2,3.7E1,4E1,2.8E1,2.6E1,6.19E2,1.58E2,3.9E1,1E0,3.6E1,1E1,1.6E1,5.97E2,2.2E1,3.7E1,1.21E2,1.7E1,2.2E1,1.5E1,2.1E1],"tree_param":{"num_deleted":"0","num_feature":"16","num_nodes":"31","size_leaf_vector":"1"}},{"base_weights":[1.0192713E-3,1.222724E-1,-6.595854E-2,1.0764643E-1,2.198865E-1,-4.218966E-2,-1.705232E-1,5.473099E-3,-9.262149E-3,3.4162495E-1,5.450535E-3,-2.3311755E-2,-1.1381871E-2,-1.9532332E-1,1.1824881E-2,5.3895083E-3,2.1188568E-2,-5.5339653E-2,1.1567573E-1,3.4064606E-3,-9.8498985E-3,-8.969486E-3,4.8640105E-3,-9.5101446E-4,-6.5941266E-3,5.4810224E-3,7.4805417E-3],"categories":[],"categories_nodes":[],"categories_segments":[],"categories_sizes":[],"default_left":[0,0,0,0,0,0,0,0,0,0,0,0,0,0,0,0,0,0,0,0,0,0,0,0,0,0,0],"id":23,"left_children":[1,3,5,7,9,11,13,-1,-1,15,-1,17,-1,19,21,-1,-1,23,25,-1,-1,-1,-1,-1,-1,-1,-1],"loss_changes":[1.5405992E1,9.400282E-1,3.0299454E0,3.3348036E-1,1.1370716E0,3.4850562E0,1.0243392E0,0E0,0E0,7.4187803E-1,0E0,4.0394397E0,0E0,1.0121822E-1,4.749796E-1,0E0,0E0,2.0463428E0,1.8532515E-2,0E0,0E0,0E0,0E0,0E0,0E0,0E0,0E0],"parents":[2147483647,0,0,1,1,2,2,3,3,4,4,5,5,6,6,9,9,11,11,13,13,14,14,17,17,18,18],"right_children":[2,4,6,8,10,12,14,-1,-1,16,-1,18,-1,20,22,-1,-1,24,26,-1,-1,-1,-1,-1,-1,-1,-1],"split_conditions":[4.5E1,2.6438196E1,2.0269495E1,1.44E1,3.55E1,1.5E1,9.8E1,5.473099E-3,-9.262149E-3,2.96E1,5.450535E-3,6.83E1,-1.1381871E-2,4.53E1,2.3459955E1,5.3895083E-3,2.1188568E-2,1.2352503E1,8E1,3.4064606E-3,-9.8498985E-3,-8.969486E-3,4.8640105E-3,-9.5101446E-4,-6.5941266E-3,5.4810224E-3,7.4805417E-3],"split_indices":[2,1,1,0,2,0,15,0,0,2,0,2,0,2,1,0,0,1,10,0,0,0,0,0,0,0,0],"split_type":[0,0,0,0,0,0,0,0,0,0,0,0,0,0,0,0,0,0,0,0,0,0,0,0,0,0,0],"sum_hessian":[1.895E3,6.74E2,1.221E3,5.88E2,8.6E1,9.96E2,2.25E2,5.85E2,3E0,4E1,4.6E1,9.05E2,9.1E1,1.98E2,2.7E1,1.1E1,2.9E1,7.36E2,1.69E2,1E0,1.97E2,8E0,1.9E1,5E2,2.36E2,1.47E2,2.2E1],"tree_param":{"num_deleted":"0","num_feature":"16","num_nodes":"27","size_leaf_vector":"1"}},{"base_weights":[-1.44973E-3,-9.592954E-2,9.5024854E-2,5.222864E-3,-2.0409423E-1,1.2784283E-1,-1.0963018E-2,-1.0598047E-2,-9.3752695E-3,2.3194367E-1,1.1758836E-1,5.2355193E-3,2.018086E-2,-1.7394608E-2,1.22425795E-1,-1.0567925E-2,5.1052626E-3,5.1393826E-3,6.5754997E-3],"categories":[],"categories_nodes":[],"categories_segments":[],"categories_sizes":[],"default_left":[0,0,0,0,0,0,0,0,0,0,0,0,0,0,0,0,0,0,0],"id":24,"left_children":[1,3,5,-1,7,9,-1,-1,-1,11,13,-1,-1,15,17,-1,-1,-1,-1],"loss_changes":[1.746415E1,2.1002506E1,9.805899E0,0E0,4.2339325E-2,8.897066E-1,0E0,0E0,0E0,1.617774E0,5.1406E-1,0E0,0E0,6.7058325E-1,1.2152767E-1,0E0,0E0,0E0,0E0],"parents":[2147483647,0,0,1,1,2,2,4,4,5,5,9,9,10,10,13,13,14,14],"right_children":[2,4,6,-1,8,10,-1,-1,-1,12,14,-1,-1,16,18,-1,-1,-1,-1],"split_conditions":[5.096111E0,4.5E1,1.5E1,5.222864E-3,1.8841028E1,3.55E1,-1.0963018E-2,-1.0598047E-2,-9.3752695E-3,5.5253186E0,5.1557345E0,5.2355193E-3,2.018086E-2,6.605829E0,4.53E1,-1.0567925E-2,5.1052626E-3,5.1393826E-3,6.5754997E-3],"split_indices":[3,2,0,0,1,2,0,0,0,3,3,0,0,1,2,0,0,0,0],"split_type":[0,0,0,0,0,0,0,0,0,0,0,0,0,0,0,0,0,0,0],"sum_hessian":[1.914E3,9.67E2,9.47E2,3.39E2,6.28E2,8.58E2,8.9E1,4.18E2,2.1E2,7.5E1,7.83E2,4.4E1,3.1E1,2.7E1,7.56E2,1E1,1.7E1,2.43E2,5.13E2],"tree_param":{"num_deleted":"0","num_feature":"16","num_nodes":"19","size_leaf_vector":"1"}},{"base_weights":[2.0739691E-4,-8.6287096E-2,8.975442E-2,4.9627116E-3,-1.9389954E-1,1.2036973E-1,-1.0502025E-2,-1.0066576E-2,-8.906299E-3,2.2267877E-1,1.11033835E-1,4.9683987E-3,1.9189045E-2,-2.3796057E-2,1.1608574E-1,-1.0171629E-2,4.864181E-3,4.887776E-3,6.22175E-3],"categories":[],"categories_nodes":[],"categories_segments":[],"categories_sizes":[],"default_left":[0,0,0,0,0,0,0,0,0,0,0,0,0,0,0,0,0,0,0],"id":25,"left_children":[1,3,5,-1,7,9,-1,-1,-1,11,13,-1,-1,15,17,-1,-1,-1,-1],"loss_changes":[1.4739351E1,1.934687E1,8.607008E0,0E0,3.5999298E-2,7.861948E-1,0E0,0E0,0E0,1.3524585E0,5.340576E-1,0E0,0E0,6.5055025E-1,1.0292435E-1,0E0,0E0,0E0,0E0],"parents":[2147483647,0,0,1,1,2,2,4,4,5,5,9,9,10,10,13,13,14,14],"right_children":[2,4,6,-1,8,10,-1,-1,-1,12,14,-1,-1,16,18,-1,-1,-1,-1],"split_conditions":[5.096111E0,4.5E1,1.5E1,4.9627116E-3,1.8841028E1,3.55E1,-1.0502025E-2,-1.0066576E-2,-8.906299E-3,5.5253186E0,5.1557345E0,4.9683987E-3,1.9189045E-2,6.605829E0,4.53E1,-1.0171629E-2,4.864181E-3,4.887776E-3,6.22175E-3],"split_indices":[3,2,0,0,1,2,0,0,0,3,3,0,0,1,2,0,0,0,0],"split_type":[0,0,0,0,0,0,0,0,0,0,0,0,0,0,0,0,0,0,0],"sum_hessian":[1.901E3,9.67E2,9.34E2,3.55E2,6.12E2,8.48E2,8.6E1,4.08E2,2.04E2,6.9E1,7.79E2,4E1,2.9E1,2.8E1,7.51E2,1.1E1,1.7E1,2.39E2,5.12E2],"tree_param":{"num_deleted":"0","num_feature":"16","num_nodes":"19","size_leaf_vector":"1"}},{"base_weights":[-7.0934347E-4,-8.354208E-2,8.5612796E-2,4.715217E-3,-1.8490884E-1,1.1859739E-1,2.3076106E-2,-9.583392E-3,-8.462655E-3,2.1359731E-1,1.0619294E-1,-7.939763E-2,4.5030545E-2,4.726587E-3,1.8261576E-2,3.1255558E-2,1.08876094E-1,-8.533637E-3,-3.2894444E-2,-9.075207E-3,5.097924E-2,-8.470193E-3,4.6004076E-3,4.622654E-3,6.1668097E-3,4.4943895E-3,-5.2624005E-3,1.2538907E-3,5.3794417E-3],"categories":[],"categories_nodes":[],"categories_segments":[],"categories_sizes":[],"default_left":[0,0,0,0,0,0,0,0,0,0,0,0,0,0,0,0,0,0,0,0,0,0,0,0,0,0,0,0,0],"id":26,"left_children":[1,3,5,-1,7,9,11,-1,-1,13,15,17,19,-1,-1,21,23,-1,25,-1,27,-1,-1,-1,-1,-1,-1,-1,-1],"loss_changes":[1.3521217E1,1.741418E1,1.9073668E0,0E0,3.2636642E-2,6.914406E-1,7.257463E-1,0E0,0E0,1.2112288E0,1.0477209E-1,2.3632705E-1,3.663631E-1,0E0,0E0,2.5939813E-1,1.1184883E-1,0E0,3.5592607E-1,0E0,3.7706566E-1,0E0,0E0,0E0,0E0,0E0,0E0,0E0,0E0],"parents":[2147483647,0,0,1,1,2,2,4,4,5,5,6,6,9,9,10,10,11,11,12,12,15,15,16,16,18,18,20,20],"right_children":[2,4,6,-1,8,10,12,-1,-1,14,16,18,20,-1,-1,22,24,-1,26,-1,28,-1,-1,-1,-1,-1,-1,-1,-1],"split_conditions":[5.096111E0,4.5E1,6.01E1,4.715217E-3,1.8841028E1,3.55E1,3E0,-9.583392E-3,-8.462655E-3,5.5253186E0,5.1557345E0,-6.1678834E0,5.1557345E0,4.726587E-3,1.8261576E-2,6.605829E0,4.53E1,-8.533637E-3,7.77E1,-9.075207E-3,3.5E1,-8.470193E-3,4.6004076E-3,4.622654E-3,6.1668097E-3,4.4943895E-3,-5.2624005E-3,1.2538907E-3,5.3794417E-3],"split_indices":[3,2,10,0,1,2,15,0,0,3,3,1,3,0,0,1,2,0,10,0,15,0,0,0,0,0,0,0,0],"split_type":[0,0,0,0,0,0,0,0,0,0,0,0,0,0,0,0,0,0,0,0,0,0,0,0,0,0,0,0,0],"sum_hessian":[1.889E3,9.64E2,9.25E2,3.5E2,6.14E2,6.05E2,3.2E2,4.21E2,1.93E2,6.8E1,5.37E2,5.6E1,2.64E2,3.9E1,2.9E1,1.9E1,5.18E2,1.8E1,3.8E1,6E0,2.58E2,4E0,1.5E1,2.46E2,2.72E2,1.4E1,2.4E1,1.78E2,8E1],"tree_param":{"num_deleted":"0","num_feature":"16","num_nodes":"29","size_leaf_vector":"1"}},{"base_weights":[-4.7539704E-4,-7.831943E-2,7.952457E-2,4.4801575E-3,-1.7532314E-1,1.0862416E-1,-9.809427E-3,-9.099684E-3,-8.038899E-3,1.9405761E-1,1.0142086E-1,4.4875243E-3,1.7353317E-2,-1.1933515E-2,1.05623834E-1,-9.22646E-3,4.430919E-3,4.41734E-3,5.7001454E-3],"categories":[],"categories_nodes":[],"categories_segments":[],"categories_sizes":[],"default_left":[0,0,0,0,0,0,0,0,0,0,0,0,0,0,0,0,0,0,0],"id":27,"left_children":[1,3,5,-1,7,9,-1,-1,-1,11,13,-1,-1,15,17,-1,-1,-1,-1],"loss_changes":[1.1857198E1,1.5734705E1,7.5550385E0,0E0,3.0118942E-2,5.0341225E-1,0E0,0E0,0E0,1.0062442E0,3.7572956E-1,0E0,0E0,5.196426E-1,9.966087E-2,0E0,0E0,0E0,0E0],"parents":[2147483647,0,0,1,1,2,2,4,4,5,5,9,9,10,10,13,13,14,14],"right_children":[2,4,6,-1,8,10,-1,-1,-1,12,14,-1,-1,16,18,-1,-1,-1,-1],"split_conditions":[5.096111E0,4.5E1,1.5E1,4.4801575E-3,1.8841028E1,3.55E1,-9.809427E-3,-9.099684E-3,-8.038899E-3,5.5253186E0,5.1557345E0,4.4875243E-3,1.7353317E-2,6.605829E0,4.53E1,-9.22646E-3,4.430919E-3,4.41734E-3,5.7001454E-3],"split_indices":[3,2,0,0,1,2,0,0,0,3,3,0,0,1,2,0,0,0,0],"split_type":[0,0,0,0,0,0,0,0,0,0,0,0,0,0,0,0,0,0,0],"sum_hessian":[1.902E3,9.64E2,9.38E2,3.53E2,6.11E2,8.49E2,8.9E1,4.11E2,2E2,6.4E1,7.85E2,3.9E1,2.5E1,2.8E1,7.57E2,1E1,1.8E1,2.51E2,5.06E2],"tree_param":{"num_deleted":"0","num_feature":"16","num_nodes":"19","size_leaf_vector":"1"}},{"base_weights":[8.08306E-4,-7.4981585E-2,7.8707114E-2,7.650956E-2,-1.5445554E-1,1.04987E-1,-9.250885E-3,7.890054E-2,-6.933901E-3,-1.0577751E-1,-1.662951E-1,2.0676792E-1,9.782251E-2,2.0671552E-2,8.342956E-2,-1.22413844E-1,2.5492301E-2,-8.621721E-3,-7.6239198E-3,4.2254194E-3,1.6082143E-2,-1.9187717E-2,1.0179842E-1,3.9933096E-3,-3.8053505E-3,3.1464116E-3,4.25603E-3,3.1946474E-3,-6.4063864E-3,3.9045687E-3,-6.933901E-3,-8.807075E-3,4.1749654E-3,4.459008E-3,5.3487383E-3],"categories":[],"categories_nodes":[],"categories_segments":[],"categories_sizes":[],"default_left":[0,0,0,0,0,0,0,0,0,0,0,0,0,0,0,0,0,0,0,0,0,0,0,0,0,0,0,0,0,0,0,0,0,0,0],"id":28,"left_children":[1,3,5,7,9,11,-1,13,-1,15,17,19,21,23,25,27,29,-1,-1,-1,-1,31,33,-1,-1,-1,-1,-1,-1,-1,-1,-1,-1,-1,-1],"loss_changes":[1.1182065E1,1.1569834E1,6.492658E0,1.8124413E-1,3.4549427E-1,5.996008E-1,0E0,8.4775686E-2,0E0,2.7828562E-1,1.6543388E-2,7.4526906E-1,3.7227058E-1,1.4929765E-1,5.182743E-3,1.2741435E-1,1.4035766E-1,0E0,0E0,0E0,0E0,4.4986987E-1,4.0753365E-2,0E0,0E0,0E0,0E0,0E0,0E0,0E0,0E0,0E0,0E0,0E0,0E0],"parents":[2147483647,0,0,1,1,2,2,3,3,4,4,5,5,7,7,9,9,10,10,11,11,12,12,13,13,14,14,15,15,16,16,21,21,22,22],"right_children":[2,4,6,8,10,12,-1,14,-1,16,18,20,22,24,26,28,30,-1,-1,-1,-1,32,34,-1,-1,-1,-1,-1,-1,-1,-1,-1,-1,-1,-1],"split_conditions":[5.096111E0,4.5E1,1.5E1,4.8712173E0,2E0,3.55E1,-9.250885E-3,1E0,-6.933901E-3,1.11E2,1.8841028E1,6.469627E0,5.1557345E0,4.0733334E1,2E0,-7.2928834E0,8.1E0,-8.621721E-3,-7.6239198E-3,4.2254194E-3,1.6082143E-2,6.605829E0,4.43E1,3.9933096E-3,-3.8053505E-3,3.1464116E-3,4.25603E-3,3.1946474E-3,-6.4063864E-3,3.9045687E-3,-6.933901E-3,-8.807075E-3,4.1749654E-3,4.459008E-3,5.3487383E-3],"split_indices":[3,8,0,3,4,8,0,4,0,15,1,3,3,8,4,7,0,0,0,0,0,1,8,0,0,0,0,0,0,0,0,0,0,0,0],"split_type":[0,0,0,0,0,0,0,0,0,0,0,0,0,0,0,0,0,0,0,0,0,0,0,0,0,0,0,0,0,0,0,0,0,0,0],"sum_hessian":[1.892E3,9.59E2,9.33E2,3.3E2,6.29E2,8.49E2,8.4E1,3.27E2,3E0,1.25E2,5.04E2,5.4E1,7.95E2,2.4E1,3.03E2,1.11E2,1.4E1,3.41E2,1.63E2,2.7E1,2.7E1,2.6E1,7.69E2,1.5E1,9E0,2.6E1,2.77E2,3E0,1.08E2,1.1E1,3E0,1E1,1.6E1,2.29E2,5.4E2],"tree_param":{"num_deleted":"0","num_feature":"16","num_nodes":"35","size_leaf_vector":"1"}},{"base_weights":[6.772701E-4,-7.156065E-2,7.3983535E-2,4.0794495E-3,-1.5877905E-1,9.925257E-2,-8.832633E-3,-8.238385E-3,-7.2809304E-3,1.8249771E-1,9.141481E-2,4.0715407E-3,1.5840014E-2,-1.4463301E-2,9.519033E-2,-8.404004E-3,4.0108566E-3,3.966089E-3,5.119613E-3],"categories":[],"categories_nodes":[],"categories_segments":[],"categories_sizes":[],"default_left":[0,0,0,0,0,0,0,0,0,0,0,0,0,0,0,0,0,0,0],"id":29,"left_children":[1,3,5,-1,7,9,-1,-1,-1,11,13,-1,-1,15,17,-1,-1,-1,-1],"loss_changes":[1.0093207E1,1.28361225E1,6.0088663E0,0E0,2.4240494E-2,5.444279E-1,0E0,0E0,0E0,9.6507144E-1,3.163762E-1,0E0,0E0,4.2072895E-1,7.884836E-2,0E0,0E0,0E0,0E0],"parents":[2147483647,0,0,1,1,2,2,4,4,5,5,9,9,10,10,13,13,14,14],"right_children":[2,4,6,-1,8,10,-1,-1,-1,12,14,-1,-1,16,18,-1,-1,-1,-1],"split_conditions":[5.096111E0,4.5E1,1.5E1,4.0794495E-3,1.8841028E1,3.55E1,-8.832633E-3,-8.238385E-3,-7.2809304E-3,5.5253186E0,5.1557345E0,4.0715407E-3,1.5840014E-2,6.605829E0,4.53E1,-8.404004E-3,4.0108566E-3,3.966089E-3,5.119613E-3],"split_indices":[3,2,0,0,1,2,0,0,0,3,3,0,0,1,2,0,0,0,0],"split_type":[0,0,0,0,0,0,0,0,0,0,0,0,0,0,0,0,0,0,0],"sum_hessian":[1.904E3,9.59E2,9.45E2,3.48E2,6.11E2,8.59E2,8.6E1,4.12E2,1.99E2,7.2E1,7.87E2,4.2E1,3E1,2.7E1,7.6E2,1E1,1.7E1,2.41E2,5.19E2],"tree_param":{"num_deleted":"0","num_feature":"16","num_nodes":"19","size_leaf_vector":"1"}},{"base_weights":[-1.9567042E-4,-6.942211E-2,6.954431E-2,3.8647128E-3,-1.5081777E-1,9.156729E-2,5.636166E-3,-7.824091E-3,-6.9183717E-3,1.7343694E-1,8.2225025E-2,-7.6636754E-2,2.0785363E-2,3.8790784E-3,1.5092661E-2,-7.884256E-3,8.610411E-2,-5.292544E-3,-1.4058192E-1,5.491381E-2,-3.7104033E-2,-7.942993E-3,3.821455E-3,2.321211E-3,4.5433952E-3,4.6081096E-3,-4.2273547E-3,-7.7314475E-3,-2.2868277E-3,-3.730556E-3,3.4359067E-3,-3.1125068E-3,1.2320586E-3],"categories":[],"categories_nodes":[],"categories_segments":[],"categories_sizes":[],"default_left":[0,0,0,0,0,0,0,0,0,0,0,0,0,0,0,0,0,0,0,0,0,0,0,0,0,0,0,0,0,0,0,0,0],"id":30,"left_children":[1,3,5,-1,7,9,11,-1,-1,13,15,17,19,-1,-1,21,23,25,27,29,31,-1,-1,-1,-1,-1,-1,-1,-1,-1,-1,-1,-1],"loss_changes":[9.148777E0,1.1368572E1,1.328115E0,0E0,2.150631E-2,5.2266264E-1,3.0446053E-1,0E0,0E0,8.505485E-1,2.2158909E-1,1.7261644E-1,4.0902662E-1,0E0,0E0,3.5583156E-1,1.1033201E-1,1.5454295E-1,1.9573718E-2,2.3756775E-1,1.2108806E-1,0E0,0E0,0E0,0E0,0E0,0E0,0E0,0E0,0E0,0E0,0E0,0E0],"parents":[2147483647,0,0,1,1,2,2,4,4,5,5,6,6,9,9,10,10,11,11,12,12,15,15,16,16,17,17,18,18,19,19,20,20],"right_children":[2,4,6,-1,8,10,12,-1,-1,14,16,18,20,-1,-1,22,24,26,28,30,32,-1,-1,-1,-1,-1,-1,-1,-1,-1,-1,-1,-1],"split_conditions":[5.096111E0,4.5E1,6.55E1,3.8647128E-3,1.8841028E1,3.55E1,-6.1678834E0,-7.824091E-3,-6.9183717E-3,5.5253186E0,5.1557345E0,3E-2,7.75E1,3.8790784E-3,1.5092661E-2,6.605829E0,-7.1678834E0,5.16E1,2.1E1,6.57E1,1.7403528E1,-7.942993E-3,3.821455E-3,2.321211E-3,4.5433952E-3,4.6081096E-3,-4.2273547E-3,-7.7314475E-3,-2.2868277E-3,-3.730556E-3,3.4359067E-3,-3.1125068E-3,1.2320586E-3],"split_indices":[3,2,10,0,1,2,1,0,0,3,3,12,10,0,0,1,1,2,4,2,1,0,0,0,0,0,0,0,0,0,0,0,0],"split_type":[0,0,0,0,0,0,0,0,0,0,0,0,0,0,0,0,0,0,0,0,0,0,0,0,0,0,0,0,0,0,0,0,0],"sum_hessian":[1.893E3,9.5E2,9.43E2,3.39E2,6.11E2,7.01E2,2.42E2,4.12E2,1.99E2,7E1,6.31E2,3.7E1,2.05E2,4.1E1,2.9E1,2.6E1,6.05E2,1.8E1,1.9E1,1.29E2,7.6E1,9E0,1.7E1,6.6E1,5.39E2,8E0,1E1,1.6E1,3E0,1.2E1,1.17E2,5.4E1,2.2E1],"tree_param":{"num_deleted":"0","num_feature":"16","num_nodes":"33","size_leaf_vector":"1"}},{"base_weights":[1.7269756E-4,-6.518187E-2,6.6771924E-2,3.6831952E-3,-1.431629E-1,9.054231E-2,-1.686939E-1,-7.4306815E-3,-6.569968E-3,1.6957876E-1,8.32058E-2,-9.282711E-3,-7.3949816E-3,3.6813149E-3,1.4360926E-2,-2.0340709E-2,8.66252E-2,-7.6609585E-3,3.6142264E-3,3.5526217E-3,4.7015487E-3],"categories":[],"categories_nodes":[],"categories_segments":[],"categories_sizes":[],"default_left":[0,0,0,0,0,0,0,0,0,0,0,0,0,0,0,0,0,0,0,0,0],"id":31,"left_children":[1,3,5,-1,7,9,11,-1,-1,13,15,-1,-1,-1,-1,17,19,-1,-1,-1,-1],"loss_changes":[8.30469E0,1.0437272E1,5.3045454E0,0E0,2.0033836E-2,4.8398256E-1,3.2248497E-3,0E0,0E0,7.915766E-1,2.807665E-1,0E0,0E0,0E0,0E0,3.3108073E-1,8.1314564E-2,0E0,0E0,0E0,0E0],"parents":[2147483647,0,0,1,1,2,2,4,4,5,5,6,6,9,9,10,10,15,15,16,16],"right_children":[2,4,6,-1,8,10,12,-1,-1,14,16,-1,-1,-1,-1,18,20,-1,-1,-1,-1],"split_conditions":[5.096111E0,4.5E1,1.5E1,3.6831952E-3,1.8841028E1,3.55E1,6E-2,-7.4306815E-3,-6.569968E-3,5.5253186E0,5.1557345E0,-9.282711E-3,-7.3949816E-3,3.6813149E-3,1.4360926E-2,6.605829E0,4.53E1,-7.6609585E-3,3.6142264E-3,3.5526217E-3,4.7015487E-3],"split_indices":[3,2,0,0,1,2,12,0,0,3,3,0,0,0,0,1,2,0,0,0,0],"split_type":[0,0,0,0,0,0,0,0,0,0,0,0,0,0,0,0,0,0,0,0,0],"sum_hessian":[1.906E3,9.62E2,9.44E2,3.46E2,6.16E2,8.58E2,8.6E1,4.13E2,2.03E2,7.1E1,7.87E2,4.3E1,4.3E1,4E1,3.1E1,2.5E1,7.62E2,1E1,1.5E1,2.49E2,5.13E2],"tree_param":{"num_deleted":"0","num_feature":"16","num_nodes":"21","size_leaf_vector":"1"}},{"base_weights":[-1.2666556E-3,-6.350902E-2,6.367447E-2,3.5000206E-3,-1.3615276E-1,8.5719764E-2,-1.6046733E-1,-7.3176147E-3,-6.4934553E-3,1.5818387E-1,7.903815E-2,-8.955631E-3,-7.078813E-3,3.5017391E-3,1.3669075E-2,-7.3646647E-3,8.205938E-2,-7.2408165E-3,3.4703256E-3,3.3709877E-3,4.4563618E-3],"categories":[],"categories_nodes":[],"categories_segments":[],"categories_sizes":[],"default_left":[0,0,0,0,0,0,0,0,0,0,0,0,0,0,0,0,0,0,0,0,0],"id":32,"left_children":[1,3,5,-1,7,9,11,-1,-1,13,15,-1,-1,-1,-1,17,19,-1,-1,-1,-1],"loss_changes":[7.623381E0,9.349306E0,4.574549E0,0E0,2.0985603E-2,3.946905E-1,3.8769245E-3,0E0,0E0,6.916733E-1,2.0212889E-1,0E0,0E0,0E0,0E0,2.94964E-1,7.118034E-2,0E0,0E0,0E0,0E0],"parents":[2147483647,0,0,1,1,2,2,4,4,5,5,6,6,9,9,10,10,15,15,16,16],"right_children":[2,4,6,-1,8,10,12,-1,-1,14,16,-1,-1,-1,-1,18,20,-1,-1,-1,-1],"split_conditions":[5.096111E0,4.5E1,1.5E1,3.5000206E-3,1.2300562E1,3.55E1,7.55E1,-7.3176147E-3,-6.4934553E-3,5.5253186E0,5.1557345E0,-8.955631E-3,-7.078813E-3,3.5017391E-3,1.3669075E-2,6.605829E0,4.53E1,-7.2408165E-3,3.4703256E-3,3.3709877E-3,4.4563618E-3],"split_indices":[3,2,0,0,1,2,10,0,0,3,3,0,0,0,0,1,2,0,0,0,0],"split_type":[0,0,0,0,0,0,0,0,0,0,0,0,0,0,0,0,0,0,0,0,0],"sum_hessian":[1.884E3,9.62E2,9.22E2,3.39E2,6.23E2,8.4E2,8.2E1,2.29E2,3.94E2,6.9E1,7.71E2,3.7E1,4.5E1,4E1,2.9E1,2.6E1,7.45E2,9E0,1.7E1,2.46E2,4.99E2],"tree_param":{"num_deleted":"0","num_feature":"16","num_nodes":"21","size_leaf_vector":"1"}},{"base_weights":[4.213945E-4,-5.7278864E-2,5.9478857E-2,3.3278484E-3,-1.2911539E-1,8.16197E-2,-1.4930601E-1,-6.709741E-3,-5.9224055E-3,1.5231147E-1,7.554125E-2,-8.303453E-3,-6.5589286E-3,3.3126993E-3,1.2991217E-2,-1.0080295E-2,7.838598E-2,-6.9119544E-3,3.2950093E-3,3.2095783E-3,4.2472035E-3],"categories":[],"categories_nodes":[],"categories_segments":[],"categories_sizes":[],"default_left":[0,0,0,0,0,0,0,0,0,0,0,0,0,0,0,0,0,0,0,0,0],"id":33,"left_children":[1,3,5,-1,7,9,11,-1,-1,13,15,-1,-1,-1,-1,17,19,-1,-1,-1,-1],"loss_changes":[6.447237E0,8.522005E0,4.334387E0,0E0,1.6940117E-2,3.5201788E-1,5.563736E-3,0E0,0E0,5.934367E-1,1.9101906E-1,0E0,0E0,0E0,0E0,2.622867E-1,6.492233E-2,0E0,0E0,0E0,0E0],"parents":[2147483647,0,0,1,1,2,2,4,4,5,5,6,6,9,9,10,10,15,15,16,16],"right_children":[2,4,6,-1,8,10,12,-1,-1,14,16,-1,-1,-1,-1,18,20,-1,-1,-1,-1],"split_conditions":[5.096111E0,4.5E1,1.5E1,3.3278484E-3,1.8841028E1,3.55E1,7.77E1,-6.709741E-3,-5.9224055E-3,5.5253186E0,5.1557345E0,-8.303453E-3,-6.5589286E-3,3.3126993E-3,1.2991217E-2,6.605829E0,4.53E1,-6.9119544E-3,3.2950093E-3,3.2095783E-3,4.2472035E-3],"split_indices":[3,2,0,0,1,2,10,0,0,3,3,0,0,0,0,1,2,0,0,0,0],"split_type":[0,0,0,0,0,0,0,0,0,0,0,0,0,0,0,0,0,0,0,0,0],"sum_hessian":[1.89E3,9.56E2,9.34E2,3.51E2,6.05E2,8.45E2,8.9E1,4.02E2,2.03E2,6.5E1,7.8E2,4.2E1,4.7E1,3.7E1,2.8E1,2.5E1,7.55E2,9E0,1.6E1,2.42E2,5.13E2],"tree_param":{"num_deleted":"0","num_feature":"16","num_nodes":"21","size_leaf_vector":"1"}},{"base_weights":[-2.265293E-4,-5.604569E-2,5.6724746E-2,3.1625994E-3,-1.2290108E-1,7.7628925E-2,-1.4332439E-1,-6.6123414E-3,-5.8589755E-3,1.4394177E-1,7.1205236E-2,-8.065533E-3,-6.3712182E-3,3.177159E-3,1.2373961E-2,-1.3777768E-2,7.452289E-2,-6.726517E-3,3.1606078E-3,3.0537476E-3,4.040362E-3],"categories":[],"categories_nodes":[],"categories_segments":[],"categories_sizes":[],"default_left":[0,0,0,0,0,0,0,0,0,0,0,0,0,0,0,0,0,0,0,0,0],"id":34,"left_children":[1,3,5,-1,7,9,11,-1,-1,13,15,-1,-1,-1,-1,17,19,-1,-1,-1,-1],"loss_changes":[6.0177946E0,7.6325355E0,3.929532E0,0E0,1.7282486E-2,3.5140133E-1,4.8975945E-3,0E0,0E0,6.002699E-1,2.198155E-1,0E0,0E0,0E0,0E0,2.8740588E-1,5.8194637E-2,0E0,0E0,0E0,0E0],"parents":[2147483647,0,0,1,1,2,2,4,4,5,5,6,6,9,9,10,10,15,15,16,16],"right_children":[2,4,6,-1,8,10,12,-1,-1,14,16,-1,-1,-1,-1,18,20,-1,-1,-1,-1],"split_conditions":[5.096111E0,4.5E1,1.5E1,3.1625994E-3,1.2300562E1,3.55E1,7.55E1,-6.6123414E-3,-5.8589755E-3,5.5253186E0,5.1557345E0,-8.065533E-3,-6.3712182E-3,3.177159E-3,1.2373961E-2,6.605829E0,4.53E1,-6.726517E-3,3.1606078E-3,3.0537476E-3,4.040362E-3],"split_indices":[3,2,0,0,1,2,10,0,0,3,3,0,0,0,0,1,2,0,0,0,0],"split_type":[0,0,0,0,0,0,0,0,0,0,0,0,0,0,0,0,0,0,0,0,0],"sum_hessian":[1.891E3,9.55E2,9.36E2,3.43E2,6.12E2,8.48E2,8.8E1,2.24E2,3.88E2,7.3E1,7.75E2,3.7E1,5.1E1,4.2E1,3.1E1,2.9E1,7.46E2,1.1E1,1.8E1,2.41E2,5.05E2],"tree_param":{"num_deleted":"0","num_feature":"16","num_nodes":"21","size_leaf_vector":"1"}},{"base_weights":[2.287828E-4,-5.1647313E-2,5.270154E-2,5.335401E-2,-1.0713514E-1,7.296428E-2,-1.3611254E-1,5.5045497E-2,-5.018897E-3,-7.178715E-2,-1.1612809E-1,6.762282E-2,1.2175854E-1,-7.7144876E-3,-6.067371E-3,1.5991108E-2,5.8173735E-2,-2.4273876E-2,-9.316237E-2,-6.035035E-3,-5.310268E-3,7.508241E-3,7.060229E-2,2.9784997E-3,1.9547178E-1,2.792783E-3,-2.1723718E-3,2.27147E-3,2.9669884E-3,-3.4608108E-3,3.0618375E-3,-5.129546E-3,-8.060918E-4,-6.363675E-3,3.009503E-3,2.9243198E-3,3.769201E-3,1.1214235E-2,6.502894E-3],"categories":[],"categories_nodes":[],"categories_segments":[],"categories_sizes":[],"default_left":[0,0,0,0,0,0,0,0,0,0,0,0,0,0,0,0,0,0,0,0,0,0,0,0,0,0,0,0,0,0,0,0,0,0,0,0,0,0,0],"id":35,"left_children":[1,3,5,7,9,11,13,15,-1,17,19,21,23,-1,-1,25,27,29,31,-1,-1,33,35,-1,37,-1,-1,-1,-1,-1,-1,-1,-1,-1,-1,-1,-1,-1,-1],"loss_changes":[5.234563E0,5.639744E0,3.6674829E0,9.26373E-2,1.9288301E-1,2.1695328E-1,6.237507E-3,3.963065E-2,0E0,1.3078314E-1,1.0003567E-2,1.393547E-1,3.734218E-1,0E0,0E0,6.403355E-2,1.8663406E-3,1.6564658E-1,6.3720286E-2,0E0,0E0,2.7748138E-1,3.869438E-2,0E0,4.2451143E-2,0E0,0E0,0E0,0E0,0E0,0E0,0E0,0E0,0E0,0E0,0E0,0E0,0E0,0E0],"parents":[2147483647,0,0,1,1,2,2,3,3,4,4,5,5,6,6,7,7,9,9,10,10,11,11,12,12,15,15,16,16,17,17,18,18,21,21,22,22,24,24],"right_children":[2,4,6,8,10,12,14,16,-1,18,20,22,24,-1,-1,26,28,30,32,-1,-1,34,36,-1,38,-1,-1,-1,-1,-1,-1,-1,-1,-1,-1,-1,-1,-1,-1],"split_conditions":[5.096111E0,4.5E1,1.5E1,4.8712173E0,2E0,2.6625696E1,7.55E1,1E0,-5.018897E-3,4.97E1,1.8841028E1,5.1557345E0,6.422245E0,-7.7144876E-3,-6.067371E-3,4.0733334E1,2E0,5.0633335E1,1.11E2,-6.035035E-3,-5.310268E-3,6.605829E0,4.53E1,2.9784997E-3,3.6833332E1,2.792783E-3,-2.1723718E-3,2.27147E-3,2.9669884E-3,-3.4608108E-3,3.0618375E-3,-5.129546E-3,-8.060918E-4,-6.363675E-3,3.009503E-3,2.9243198E-3,3.769201E-3,1.1214235E-2,6.502894E-3],"split_indices":[3,8,0,3,4,1,10,4,0,8,1,3,3,0,0,8,4,10,15,0,0,1,8,0,8,0,0,0,0,0,0,0,0,0,0,0,0,0,0],"split_type":[0,0,0,0,0,0,0,0,0,0,0,0,0,0,0,0,0,0,0,0,0,0,0,0,0,0,0,0,0,0,0,0,0,0,0,0,0,0,0],"sum_hessian":[1.921E3,9.66E2,9.55E2,3.34E2,6.32E2,8.63E2,9.2E1,3.31E2,3E0,1.3E2,5.02E2,7.8E2,8.3E1,3.7E1,5.5E1,2.5E1,3.06E2,4.1E1,8.9E1,3.36E2,1.66E2,3.7E1,7.43E2,4.6E1,3.7E1,1.5E1,1E1,2.9E1,2.77E2,2.7E1,1.4E1,7.9E1,1E1,1E1,2.7E1,2.14E2,5.29E2,2.4E1,1.3E1],"tree_param":{"num_deleted":"0","num_feature":"16","num_nodes":"39","size_leaf_vector":"1"}},{"base_weights":[1.4936429E-4,-5.050274E-2,5.144383E-2,2.8790843E-3,-1.1142722E-1,6.9858186E-2,-1.2665685E-1,-1.2038256E-1,-5.296189E-3,1.3427812E-1,6.440853E-2,-7.1297185E-3,-5.7105967E-3,-6.0541257E-3,-3.2614097E-3,2.8525617E-3,1.1252435E-2,-1.0984332E-2,6.708033E-2,-6.077167E-3,2.8594874E-3,2.7410716E-3,3.6456734E-3],"categories":[],"categories_nodes":[],"categories_segments":[],"categories_sizes":[],"default_left":[0,0,0,0,0,0,0,0,0,0,0,0,0,0,0,0,0,0,0,0,0,0,0],"id":36,"left_children":[1,3,5,-1,7,9,11,13,-1,15,17,-1,-1,-1,-1,-1,-1,19,21,-1,-1,-1,-1],"loss_changes":[4.9469204E0,6.3148346E0,3.111358E0,0E0,1.745987E-2,2.925663E-1,1.3664961E-3,8.2707405E-4,0E0,4.4981587E-1,1.6047382E-1,0E0,0E0,0E0,0E0,0E0,0E0,2.1799426E-1,5.0777912E-2,0E0,0E0,0E0,0E0],"parents":[2147483647,0,0,1,1,2,2,4,4,5,5,6,6,7,7,9,9,10,10,17,17,18,18],"right_children":[2,4,6,-1,8,10,12,14,-1,16,18,-1,-1,-1,-1,-1,-1,20,22,-1,-1,-1,-1],"split_conditions":[5.096111E0,4.5E1,1.5E1,2.8790843E-3,1.2300562E1,3.55E1,3E-2,1.41E1,-5.296189E-3,5.5253186E0,5.1557345E0,-7.1297185E-3,-5.7105967E-3,-6.0541257E-3,-3.2614097E-3,2.8525617E-3,1.1252435E-2,6.605829E0,4.53E1,-6.077167E-3,2.8594874E-3,2.7410716E-3,3.6456734E-3],"split_indices":[3,2,0,0,1,2,12,0,0,3,3,0,0,0,0,0,0,1,2,0,0,0,0],"split_type":[0,0,0,0,0,0,0,0,0,0,0,0,0,0,0,0,0,0,0,0,0,0,0],"sum_hessian":[1.902E3,9.57E2,9.45E2,3.45E2,6.12E2,8.57E2,8.8E1,2.25E2,3.87E2,6.5E1,7.92E2,3.4E1,5.4E1,2.21E2,4E0,3.6E1,2.9E1,2.7E1,7.65E2,1E1,1.7E1,2.5E2,5.15E2],"tree_param":{"num_deleted":"0","num_feature":"16","num_nodes":"23","size_leaf_vector":"1"}},{"base_weights":[-8.954871E-4,-4.7396466E-2,4.7564924E-2,2.7359542E-3,-1.05599985E-1,6.61118E-2,-1.2334451E-1,-5.6943195E-3,-5.031466E-3,1.2471492E-1,6.07606E-2,-7.3357597E-3,-5.5869543E-3,2.731125E-3,1.0700717E-2,-8.175906E-3,6.3380055E-2,-5.798182E-3,2.7328914E-3,2.6020429E-3,3.440973E-3],"categories":[],"categories_nodes":[],"categories_segments":[],"categories_sizes":[],"default_left":[0,0,0,0,0,0,0,0,0,0,0,0,0,0,0,0,0,0,0,0,0],"id":37,"left_children":[1,3,5,-1,7,9,11,-1,-1,13,15,-1,-1,-1,-1,17,19,-1,-1,-1,-1],"loss_changes":[4.2612877E0,5.7412405E0,2.9434237E0,0E0,1.3870716E-2,2.5458956E-1,8.287787E-3,0E0,0E0,4.2019558E-1,1.3920093E-1,0E0,0E0,0E0,0E0,2.0274678E-1,4.2060614E-2,0E0,0E0,0E0,0E0],"parents":[2147483647,0,0,1,1,2,2,4,4,5,5,6,6,9,9,10,10,15,15,16,16],"right_children":[2,4,6,-1,8,10,12,-1,-1,14,16,-1,-1,-1,-1,18,20,-1,-1,-1,-1],"split_conditions":[5.096111E0,4.5E1,1.5E1,2.7359542E-3,1.2300562E1,3.55E1,7.12E1,-5.6943195E-3,-5.031466E-3,5.5253186E0,5.1557345E0,-7.3357597E-3,-5.5869543E-3,2.731125E-3,1.0700717E-2,6.605829E0,4.53E1,-5.798182E-3,2.7328914E-3,2.6020429E-3,3.440973E-3],"split_indices":[3,2,0,0,1,2,10,0,0,3,3,0,0,0,0,1,2,0,0,0,0],"split_type":[0,0,0,0,0,0,0,0,0,0,0,0,0,0,0,0,0,0,0,0,0],"sum_hessian":[1.889E3,9.64E2,9.25E2,3.5E2,6.14E2,8.35E2,9E1,2.22E2,3.92E2,6.8E1,7.67E2,2.6E1,6.4E1,3.9E1,2.9E1,2.8E1,7.39E2,1E1,1.8E1,2.43E2,4.96E2],"tree_param":{"num_deleted":"0","num_feature":"16","num_nodes":"21","size_leaf_vector":"1"}},{"base_weights":[3.8251688E-4,-4.5287024E-2,4.7076285E-2,2.5911618E-3,-1.003639E-1,6.2920384E-2,-1.1651329E-1,-5.2228332E-3,-4.5779985E-3,1.1440176E-1,5.8249533E-2,-6.7250617E-3,-5.1896838E-3,2.5972144E-3,1.0045626E-2,-1.5474237E-3,6.0218576E-2,2.5954044E-3,-5.4143253E-3,2.481192E-3,3.2596332E-3],"categories":[],"categories_nodes":[],"categories_segments":[],"categories_sizes":[],"default_left":[0,0,0,0,0,0,0,0,0,0,0,0,0,0,0,0,0,0,0,0,0],"id":38,"left_children":[1,3,5,-1,7,9,11,-1,-1,13,15,-1,-1,-1,-1,17,19,-1,-1,-1,-1],"loss_changes":[4.0367894E0,5.123744E0,2.4333768E0,0E0,1.2452126E-2,1.9869041E-1,5.0299168E-3,0E0,0E0,3.6779088E-1,9.252119E-2,0E0,0E0,0E0,0E0,1.5397154E-1,3.681612E-2,0E0,0E0,0E0,0E0],"parents":[2147483647,0,0,1,1,2,2,4,4,5,5,6,6,9,9,10,10,15,15,16,16],"right_children":[2,4,6,-1,8,10,12,-1,-1,14,16,-1,-1,-1,-1,18,20,-1,-1,-1,-1],"split_conditions":[5.096111E0,4.5E1,1.5E1,2.5911618E-3,1.8895481E1,3.55E1,4E-2,-5.2228332E-3,-4.5779985E-3,5.5253186E0,5.1557345E0,-6.7250617E-3,-5.1896838E-3,2.5972144E-3,1.0045626E-2,4.47E1,4.53E1,2.5954044E-3,-5.4143253E-3,2.481192E-3,3.2596332E-3],"split_indices":[3,2,0,0,7,2,13,0,0,3,3,0,0,0,0,2,2,0,0,0,0],"split_type":[0,0,0,0,0,0,0,0,0,0,0,0,0,0,0,0,0,0,0,0,0],"sum_hessian":[1.891E3,9.56E2,9.35E2,3.46E2,6.1E2,8.53E2,8.2E1,4.09E2,2.01E2,6.9E1,7.84E2,3E1,5.2E1,4.1E1,2.8E1,2.5E1,7.59E2,1.7E1,8E0,2.46E2,5.13E2],"tree_param":{"num_deleted":"0","num_feature":"16","num_nodes":"21","size_leaf_vector":"1"}},{"base_weights":[7.6929043E-4,-4.0782545E-2,4.6610687E-2,2.4674963E-3,-9.597724E-2,6.2624246E-2,-1.1003484E-1,-5.206996E-3,-4.5416327E-3,1.23964176E-1,5.754499E-2,-6.5643066E-3,-5.035965E-3,2.4786487E-3,9.717827E-3,6.1398275E-2,4.4059996E-2,2.3563015E-3,3.5847758E-3,1.8311255E-3,4.286627E-3],"categories":[],"categories_nodes":[],"categories_segments":[],"categories_sizes":[],"default_left":[0,0,0,0,0,0,0,0,0,0,0,0,0,0,0,0,0,0,0,0,0],"id":39,"left_children":[1,3,5,-1,7,9,11,-1,-1,13,15,-1,-1,-1,-1,17,19,-1,-1,-1,-1],"loss_changes":[3.5695806E0,4.8949986E0,2.241922E0,0E0,1.6156673E-2,2.449193E-1,3.2081604E-3,0E0,0E0,3.097961E-1,3.6214113E-2,0E0,0E0,0E0,0E0,8.186078E-2,4.9549878E-2,0E0,0E0,0E0,0E0],"parents":[2147483647,0,0,1,1,2,2,4,4,5,5,6,6,9,9,10,10,15,15,16,16],"right_children":[2,4,6,-1,8,10,12,-1,-1,14,16,-1,-1,-1,-1,18,20,-1,-1,-1,-1],"split_conditions":[5.1557345E0,4.5E1,1.5E1,2.4674963E-3,1.2300562E1,3.55E1,7.12E1,-5.206996E-3,-4.5416327E-3,5.5253186E0,6.73E1,-6.5643066E-3,-5.035965E-3,2.4786487E-3,9.717827E-3,4.53E1,8E1,2.3563015E-3,3.5847758E-3,1.8311255E-3,4.286627E-3],"split_indices":[3,2,0,0,1,2,10,0,0,3,2,0,0,0,0,2,10,0,0,0,0],"split_type":[0,0,0,0,0,0,0,0,0,0,0,0,0,0,0,0,0,0,0,0,0],"sum_hessian":[1.872E3,9.82E2,8.9E2,3.73E2,6.09E2,8.08E2,8.2E1,2.28E2,3.81E2,6E1,7.48E2,2.1E1,6.1E1,3E1,3E1,5.79E2,1.69E2,2.45E2,3.34E2,1.45E2,2.4E1],"tree_param":{"num_deleted":"0","num_feature":"16","num_nodes":"21","size_leaf_vector":"1"}},{"base_weights":[-4.3243027E-4,-4.094531E-2,4.1299347E-2,2.3370108E-3,-9.07388E-2,5.9400275E-2,9.514244E-3,-4.7311466E-3,-4.110114E-3,1.0580126E-1,5.318872E-2,2.192007E-2,-2.6119646E-2,2.3502423E-3,9.263946E-3,2.2320186E-3,6.1036102E-2,-1.55181E-2,3.2943115E-2,-6.44884E-3,-5.4353897E-2,-4.181382E-3,3.1483758E-3,1.9301758E-4,-3.8348772E-3,-4.620771E-3,1.836421E-3,2.1821929E-3,-1.786273E-3,-3.9752307E-3,-6.921291E-4],"categories":[],"categories_nodes":[],"categories_segments":[],"categories_sizes":[],"default_left":[0,0,0,0,0,0,0,0,0,0,0,0,0,0,0,0,0,0,0,0,0,0,0,0,0,0,0,0,0,0,0],"id":40,"left_children":[1,3,5,-1,7,9,11,-1,-1,13,15,17,19,-1,-1,-1,21,23,25,27,29,-1,-1,-1,-1,-1,-1,-1,-1,-1,-1],"loss_changes":[3.195375E0,4.1913967E0,5.350765E-1,0E0,1.2513638E-2,1.6528845E-1,1.5043353E-1,0E0,0E0,3.1372792E-1,3.2493353E-2,1.04507245E-1,4.8523843E-2,0E0,0E0,0E0,8.098483E-2,6.905873E-2,9.592575E-2,7.928606E-2,3.5579443E-2,0E0,0E0,0E0,0E0,0E0,0E0,0E0,0E0,0E0,0E0],"parents":[2147483647,0,0,1,1,2,2,4,4,5,5,6,6,9,9,10,10,11,11,12,12,16,16,17,17,18,18,19,19,20,20],"right_children":[2,4,6,-1,8,10,12,-1,-1,14,16,18,20,-1,-1,-1,22,24,26,28,30,-1,-1,-1,-1,-1,-1,-1,-1,-1,-1],"split_conditions":[5.096111E0,4.5E1,6E1,2.3370108E-3,1.8841028E1,3.55E1,7.75E1,-4.7311466E-3,-4.110114E-3,5.5253186E0,4.53E1,-6.1678834E0,9E-2,2.3502423E-3,9.263946E-3,2.2320186E-3,5.1557345E0,2E-2,5.1557345E0,8.940831E0,8.92E1,-4.181382E-3,3.1483758E-3,1.9301758E-4,-3.8348772E-3,-4.620771E-3,1.836421E-3,2.1821929E-3,-1.786273E-3,-3.9752307E-3,-6.921291E-4],"split_indices":[3,2,10,0,1,2,10,0,0,3,2,1,12,0,0,0,3,12,3,3,2,0,0,0,0,0,0,0,0,0,0],"split_type":[0,0,0,0,0,0,0,0,0,0,0,0,0,0,0,0,0,0,0,0,0,0,0,0,0,0,0,0,0,0,0],"sum_hessian":[1.888E3,9.58E2,9.3E2,3.47E2,6.11E2,5.92E2,3.38E2,4.13E2,1.98E2,6.8E1,5.24E2,2.51E2,8.7E1,4E1,2.8E1,2.54E2,2.7E2,5.7E1,1.94E2,5.2E1,3.5E1,3E0,2.67E2,4.4E1,1.3E1,5E0,1.89E2,1.9E1,3.3E1,2.1E1,1.4E1],"tree_param":{"num_deleted":"0","num_feature":"16","num_nodes":"31","size_leaf_vector":"1"}},{"base_weights":[-3.0974427E-4,-3.9549053E-2,4.016411E-2,4.46508E-2,-8.6048566E-2,5.448879E-2,-1.0339032E-1,2.1868877E-3,2.6021798E-3,-8.953565E-2,-3.9255153E-3,1.0170138E-1,5.012597E-2,-5.884935E-3,-4.385387E-3,-4.495892E-3,-2.434392E-3,2.237133E-3,8.807746E-3,-1.1270002E-2,5.2286677E-2,2.2431319E-3,-4.849795E-3,2.7937654E-3,1.987311E-3],"categories":[],"categories_nodes":[],"categories_segments":[],"categories_sizes":[],"default_left":[0,0,0,0,0,0,0,0,0,0,0,0,0,0,0,0,0,0,0,0,0,0,0,0,0],"id":41,"left_children":[1,3,5,7,9,11,13,-1,-1,15,-1,17,19,-1,-1,-1,-1,-1,-1,21,23,-1,-1,-1,-1],"loss_changes":[2.9746354E0,3.7272472E0,1.901608E0,1.2040138E-5,9.084225E-3,1.6771936E-1,8.525789E-3,0E0,0E0,2.0542145E-3,0E0,2.889728E-1,1.02736354E-1,0E0,0E0,0E0,0E0,0E0,0E0,1.3427603E-1,3.1261683E-2,0E0,0E0,0E0,0E0],"parents":[2147483647,0,0,1,1,2,2,3,3,4,4,5,5,6,6,9,9,11,11,12,12,19,19,20,20],"right_children":[2,4,6,8,10,12,14,-1,-1,16,-1,18,20,-1,-1,-1,-1,-1,-1,22,24,-1,-1,-1,-1],"split_conditions":[5.096111E0,4.5E1,1.5E1,4.5E1,1.8895481E1,3.55E1,6E-2,2.1868877E-3,2.6021798E-3,1.41E1,-3.9255153E-3,5.5253186E0,5.1557345E0,-5.884935E-3,-4.385387E-3,-4.495892E-3,-2.434392E-3,2.237133E-3,8.807746E-3,4.47E1,6.73E1,2.2431319E-3,-4.849795E-3,2.7937654E-3,1.987311E-3],"split_indices":[3,2,0,8,7,2,12,0,0,0,0,3,3,0,0,0,0,0,0,2,2,0,0,0,0],"split_type":[0,0,0,0,0,0,0,0,0,0,0,0,0,0,0,0,0,0,0,0,0,0,0,0,0],"sum_hessian":[1.871E3,9.5E2,9.21E2,3.38E2,6.12E2,8.38E2,8.3E1,3.07E2,3.1E1,4.11E2,2.01E2,6.9E1,7.69E2,4E1,4.3E1,4.06E2,5E0,4E1,2.9E1,2.6E1,7.43E2,1.6E1,1E1,5.75E2,1.68E2],"tree_param":{"num_deleted":"0","num_feature":"16","num_nodes":"25","size_leaf_vector":"1"}},{"base_weights":[-7.929909E-5,4.6832584E-2,-2.6201058E-2,4.0220197E-2,9.21134E-2,-2.0643417E-2,-9.593623E-2,2.0735057E-3,-4.4800066E-3,1.3807423E-1,2.0338232E-3,-3.0711442E-2,3.8669486E-2,-7.857151E-2,-5.4431194E-3,2.2314468E-3,8.349697E-3,-1.0173027E-2,-5.0976492E-2,2.2146676E-2,5.6814842E-2,-1.9650846E-3,-4.029227E-3,-2.0986218E-3,3.003014E-4,-2.9181265E-3,-4.0939395E-4,-3.7173815E-3,1.4427671E-3,4.7330516E-3,2.4928579E-3],"categories":[],"categories_nodes":[],"categories_segments":[],"categories_sizes":[],"default_left":[0,0,0,0,0,0,0,0,0,0,0,0,0,0,0,0,0,0,0,0,0,0,0,0,0,0,0,0,0,0,0],"id":42,"left_children":[1,3,5,7,9,11,13,-1,-1,15,-1,17,19,21,-1,-1,-1,23,25,27,29,-1,-1,-1,-1,-1,-1,-1,-1,-1,-1],"loss_changes":[2.333203E0,2.0019639E-1,4.7200936E-1,1.0042554E-1,1.9769496E-1,6.783715E-1,1.16478205E-2,0E0,0E0,1.1415565E-1,0E0,4.0320694E-1,4.8210785E-2,1.5303493E-4,0E0,0E0,0E0,2.4874808E-1,1.5374899E-1,5.9111938E-2,1.581958E-2,0E0,0E0,0E0,0E0,0E0,0E0,0E0,0E0,0E0,0E0],"parents":[2147483647,0,0,1,1,2,2,3,3,4,4,5,5,6,6,9,9,11,11,12,12,13,13,17,17,18,18,19,19,20,20],"right_children":[2,4,6,8,10,12,14,-1,-1,16,-1,18,20,22,-1,-1,-1,24,26,28,30,-1,-1,-1,-1,-1,-1,-1,-1,-1,-1],"split_conditions":[4.5E1,2.6438196E1,1.5E1,1.44E1,3.55E1,6.575E1,2.6E1,2.0735057E-3,-4.4800066E-3,2.96E1,2.0338232E-3,1.2352503E1,1.16E1,6.42E1,-5.4431194E-3,2.2314468E-3,8.349697E-3,5.230829E0,6.42E1,5.58E1,6.59E1,-1.9650846E-3,-4.029227E-3,-2.0986218E-3,3.003014E-4,-2.9181265E-3,-4.0939395E-4,-3.7173815E-3,1.4427671E-3,4.7330516E-3,2.4928579E-3],"split_indices":[2,1,0,0,2,10,15,0,0,2,0,1,0,8,0,0,0,1,2,2,2,0,0,0,0,0,0,0,0,0,0],"split_type":[0,0,0,0,0,0,0,0,0,0,0,0,0,0,0,0,0,0,0,0,0,0,0,0,0,0,0,0,0,0,0],"sum_hessian":[1.902E3,6.8E2,1.222E3,5.95E2,8.5E1,1.133E3,8.9E1,5.9E2,5E0,4.4E1,4.1E1,9.69E2,1.64E2,4.1E1,4.8E1,1.1E1,3.3E1,4.82E2,4.87E2,8.7E1,7.7E1,3E0,3.8E1,1.62E2,3.2E2,4.15E2,7.2E1,5E0,8.2E1,1E1,6.7E1],"tree_param":{"num_deleted":"0","num_feature":"16","num_nodes":"31","size_leaf_vector":"1"}},{"base_weights":[2.4920612E-4,-3.6167827E-2,3.7364062E-2,4.0276833E-2,-7.971959E-2,5.0789233E-2,-9.638546E-2,1.9743992E-3,2.3534817E-3,-8.7830745E-2,-3.7306924E-3,9.3164265E-2,4.6649598E-2,-5.5760606E-3,-4.134024E-3,-8.096124E-2,-4.683242E-3,2.0219286E-3,7.952215E-3,-1.2143044E-2,4.8693035E-2,-4.0750927E-3,-1.6985768E-3,-4.643E-3,2.0399936E-3,1.8934623E-3,2.6961565E-3],"categories":[],"categories_nodes":[],"categories_segments":[],"categories_sizes":[],"default_left":[0,0,0,0,0,0,0,0,0,0,0,0,0,0,0,0,0,0,0,0,0,0,0,0,0,0,0],"id":43,"left_children":[1,3,5,7,9,11,13,-1,-1,15,-1,17,19,-1,-1,21,-1,-1,-1,23,25,-1,-1,-1,-1,-1,-1],"loss_changes":[2.5626578E0,3.1893504E0,1.6909732E0,6.0796738E-6,1.8708706E-2,1.4546037E-1,8.618832E-3,0E0,0E0,1.6344786E-3,0E0,2.5408626E-1,9.429979E-2,0E0,0E0,1.0186434E-4,0E0,0E0,0E0,1.19170226E-1,4.0641427E-2,0E0,0E0,0E0,0E0,0E0,0E0],"parents":[2147483647,0,0,1,1,2,2,3,3,4,4,5,5,6,6,9,9,11,11,12,12,15,15,19,19,20,20],"right_children":[2,4,6,8,10,12,14,-1,-1,16,-1,18,20,-1,-1,22,-1,-1,-1,24,26,-1,-1,-1,-1,-1,-1],"split_conditions":[5.096111E0,4.5E1,1.5E1,4.5E1,1.2391687E1,3.55E1,7.55E1,1.9743992E-3,2.3534817E-3,5.230829E0,-3.7306924E-3,5.5253186E0,5.1557345E0,-5.5760606E-3,-4.134024E-3,1.41E1,-4.683242E-3,2.0219286E-3,7.952215E-3,6.605829E0,4.53E1,-4.0750927E-3,-1.6985768E-3,-4.643E-3,2.0399936E-3,1.8934623E-3,2.6961565E-3],"split_indices":[3,2,0,8,1,2,10,0,0,1,0,3,3,0,0,0,0,0,0,1,2,0,0,0,0,0,0],"split_type":[0,0,0,0,0,0,0,0,0,0,0,0,0,0,0,0,0,0,0,0,0,0,0,0,0,0,0],"sum_hessian":[1.894E3,9.56E2,9.38E2,3.47E2,6.09E2,8.53E2,8.5E1,3.17E2,3E1,2.29E2,3.8E2,7.4E1,7.79E2,3.7E1,4.8E1,1.12E2,1.17E2,4.2E1,3.2E1,2.6E1,7.53E2,1.1E2,2E0,1E1,1.6E1,2.48E2,5.05E2],"tree_param":{"num_deleted":"0","num_feature":"16","num_nodes":"27","size_leaf_vector":"1"}},{"base_weights":[3.424095E-4,-3.4962513E-2,3.6749054E-2,3.8289506E-2,-7.587915E-2,4.8637208E-2,-8.831007E-2,1.8741945E-3,2.2266188E-3,-8.3051495E-2,-3.5922204E-3,8.9902654E-2,4.4813737E-2,-4.9025104E-3,-3.6705644E-3,-4.18814E-3,-2.2157028E-3,1.9186735E-3,7.575234E-3,-1.037363E-2,4.6581775E-2,1.9364012E-3,-4.3949457E-3,1.8049156E-3,2.5713472E-3],"categories":[],"categories_nodes":[],"categories_segments":[],"categories_sizes":[],"default_left":[0,0,0,0,0,0,0,0,0,0,0,0,0,0,0,0,0,0,0,0,0,0,0,0,0],"id":44,"left_children":[1,3,5,7,9,11,13,-1,-1,15,-1,17,19,-1,-1,-1,-1,-1,-1,21,23,-1,-1,-1,-1],"loss_changes":[2.4254246E0,2.874248E0,1.3854598E0,6.0796738E-5,1.183033E-2,1.2992406E-1,4.556358E-3,0E0,0E0,2.212286E-3,0E0,2.1956164E-1,7.6492906E-2,0E0,0E0,0E0,0E0,0E0,0E0,9.856964E-2,3.6493063E-2,0E0,0E0,0E0,0E0],"parents":[2147483647,0,0,1,1,2,2,3,3,4,4,5,5,6,6,9,9,11,11,12,12,19,19,20,20],"right_children":[2,4,6,8,10,12,14,-1,-1,16,-1,18,20,-1,-1,-1,-1,-1,-1,22,24,-1,-1,-1,-1],"split_conditions":[5.096111E0,4.5E1,1.5E1,4.5E1,1.2279118E1,3.55E1,7.88E1,1.8741945E-3,2.2266188E-3,1.39E1,-3.5922204E-3,5.5253186E0,5.1557345E0,-4.9025104E-3,-3.6705644E-3,-4.18814E-3,-2.2157028E-3,1.9186735E-3,7.575234E-3,4.47E1,4.53E1,1.9364012E-3,-4.3949457E-3,1.8049156E-3,2.5713472E-3],"split_indices":[3,2,0,8,7,2,10,0,0,0,0,3,3,0,0,0,0,0,0,2,2,0,0,0,0],"split_type":[0,0,0,0,0,0,0,0,0,0,0,0,0,0,0,0,0,0,0,0,0,0,0,0,0],"sum_hessian":[1.885E3,9.57E2,9.28E2,3.43E2,6.14E2,8.48E2,8E1,3.1E2,3.3E1,2.14E2,4E2,7E1,7.78E2,4.5E1,3.5E1,2.09E2,5E0,3.9E1,3.1E1,2.4E1,7.54E2,1.5E1,9E0,2.41E2,5.13E2],"tree_param":{"num_deleted":"0","num_feature":"16","num_nodes":"25","size_leaf_vector":"1"}},{"base_weights":[4.7606087E-4,-3.172388E-2,3.3157628E-2,3.6381014E-2,-7.2122216E-2,4.550055E-2,-8.468069E-2,1.781968E-3,2.136509E-3,-7.982405E-2,-6.7501836E-2,8.251163E-2,4.216388E-2,-4.86131E-3,-3.5969594E-3,-7.253638E-2,-4.335313E-3,-7.073904E-2,-3.1862387E-3,1.8229074E-3,7.2388253E-3,-6.260756E-3,4.3844227E-2,-3.651413E-3,-1.5160871E-3,-3.5452344E-3,-9.650819E-4,-4.1919514E-3,1.8593051E-3,1.7057864E-3,2.4248639E-3],"categories":[],"categories_nodes":[],"categories_segments":[],"categories_sizes":[],"default_left":[0,0,0,0,0,0,0,0,0,0,0,0,0,0,0,0,0,0,0,0,0,0,0,0,0,0,0,0,0,0,0],"id":45,"left_children":[1,3,5,7,9,11,13,-1,-1,15,17,19,21,-1,-1,23,-1,25,-1,-1,-1,27,29,-1,-1,-1,-1,-1,-1,-1,-1],"loss_changes":[1.9826167E0,2.6136305E0,1.3637815E0,1.4406443E-4,1.5820742E-2,1.01120114E-1,7.232189E-3,0E0,0E0,4.644513E-3,1.2612343E-4,1.9258025E-1,6.3661814E-2,0E0,0E0,1.1128187E-4,0E0,2.9295683E-4,0E0,0E0,0E0,9.4122E-2,3.2431602E-2,0E0,0E0,0E0,0E0,0E0,0E0,0E0,0E0],"parents":[2147483647,0,0,1,1,2,2,3,3,4,4,5,5,6,6,9,9,10,10,11,11,12,12,15,15,17,17,21,21,22,22],"right_children":[2,4,6,8,10,12,14,-1,-1,16,18,20,22,-1,-1,24,-1,26,-1,-1,-1,28,30,-1,-1,-1,-1,-1,-1,-1,-1],"split_conditions":[5.096111E0,4.5E1,1.5E1,4.5E1,1.2300562E1,3.55E1,4E-2,1.781968E-3,2.136509E-3,5.230829E0,1.8841028E1,5.5253186E0,5.1557345E0,-4.86131E-3,-3.5969594E-3,1.51E1,-4.335313E-3,1.29E1,-3.1862387E-3,1.8229074E-3,7.2388253E-3,6.605829E0,4.53E1,-3.651413E-3,-1.5160871E-3,-3.5452344E-3,-9.650819E-4,-4.1919514E-3,1.8593051E-3,1.7057864E-3,2.4248639E-3],"split_indices":[3,2,0,8,1,2,12,0,0,1,9,3,3,0,0,0,0,0,0,0,0,1,2,0,0,0,0,0,0,0,0],"split_type":[0,0,0,0,0,0,0,0,0,0,0,0,0,0,0,0,0,0,0,0,0,0,0,0,0,0,0,0,0,0,0],"sum_hessian":[1.882E3,9.48E2,9.34E2,3.53E2,5.95E2,8.46E2,8.8E1,3.22E2,3.1E1,2.17E2,3.78E2,6.8E1,7.78E2,4.1E1,4.7E1,1.11E2,1.06E2,1.94E2,1.84E2,4E1,2.8E1,2.6E1,7.52E2,1.09E2,2E0,1.93E2,1E0,9E0,1.7E1,2.46E2,5.06E2],"tree_param":{"num_deleted":"0","num_feature":"16","num_nodes":"31","size_leaf_vector":"1"}},{"base_weights":[-2.1788593E-4,-3.2767337E-2,3.277768E-2,1.7283859E-3,-6.847026E-2,4.4279154E-2,-8.168843E-2,-7.5624704E-2,-6.421381E-2,7.9362184E-2,4.1130424E-2,-5.1553478E-3,-3.6655609E-3,-3.460167E-3,-8.182757E-2,-6.738833E-2,-3.0359908E-3,1.7420674E-3,6.878096E-3,-1.3669828E-3,4.257092E-2,-4.1069975E-3,-1.1866577E-3,-3.3768544E-3,-9.409549E-4,-3.9564683E-3,1.7769889E-3,1.630549E-3,2.3657444E-3],"categories":[],"categories_nodes":[],"categories_segments":[],"categories_sizes":[],"default_left":[0,0,0,0,0,0,0,0,0,0,0,0,0,0,0,0,0,0,0,0,0,0,0,0,0,0,0,0,0],"id":46,"left_children":[1,3,5,-1,7,9,11,13,15,17,19,-1,-1,-1,21,23,-1,-1,-1,25,27,-1,-1,-1,-1,-1,-1,-1,-1],"loss_changes":[2.05239E0,2.315071E0,1.2530034E0,0E0,1.4298439E-2,9.206879E-2,8.051276E-3,3.4585E-3,3.5607815E-4,1.7658424E-1,4.866469E-2,0E0,0E0,0E0,6.490946E-5,1.8119812E-4,0E0,0E0,0E0,8.03011E-2,3.474462E-2,0E0,0E0,0E0,0E0,0E0,0E0,0E0,0E0],"parents":[2147483647,0,0,1,1,2,2,4,4,5,5,6,6,7,7,8,8,9,9,10,10,14,14,15,15,19,19,20,20],"right_children":[2,4,6,-1,8,10,12,14,16,18,20,-1,-1,-1,22,24,-1,-1,-1,26,28,-1,-1,-1,-1,-1,-1,-1,-1],"split_conditions":[5.096111E0,9E0,1.5E1,1.7283859E-3,1.2300562E1,7.1E0,6.9666664E1,5.230829E0,1.8895481E1,5.5253186E0,5.1557345E0,-5.1553478E-3,-3.6655609E-3,-3.460167E-3,1.24E1,1.29E1,-3.0359908E-3,1.7420674E-3,6.878096E-3,6.605829E0,9.059999E0,-4.1069975E-3,-1.1866577E-3,-3.3768544E-3,-9.409549E-4,-3.9564683E-3,1.7769889E-3,1.630549E-3,2.3657444E-3],"split_indices":[3,6,0,0,1,6,10,1,7,3,3,0,0,0,0,0,0,0,0,1,6,0,0,0,0,0,0,0,0],"split_type":[0,0,0,0,0,0,0,0,0,0,0,0,0,0,0,0,0,0,0,0,0,0,0,0,0,0,0,0,0],"sum_hessian":[1.909E3,9.61E2,9.48E2,3.33E2,6.28E2,8.62E2,8.6E1,2.28E2,4E2,6.9E1,7.93E2,2.1E1,6.5E1,1.18E2,1.1E2,2E2,2E2,4E1,2.9E1,2.6E1,7.67E2,1.09E2,1E0,1.99E2,1E0,8E0,1.8E1,2.5E2,5.17E2],"tree_param":{"num_deleted":"0","num_feature":"16","num_nodes":"29","size_leaf_vector":"1"}},{"base_weights":[1.18235424E-4,-2.8569309E-2,3.137043E-2,1.6433448E-3,-6.5464385E-2,4.301502E-2,-7.736015E-2,-7.259423E-2,-6.103943E-2,8.600212E-2,3.9807834E-2,-8.745001E-2,-3.1533036E-3,-3.286105E-3,-3.925492E-3,-6.395168E-2,-2.8756943E-3,1.694068E-3,6.3471026E-3,4.3559715E-2,2.7025634E-2,-4.845693E-3,-3.5715064E-3,-3.20433E-3,-9.1743097E-4,1.5438834E-3,2.6314345E-3,1.034051E-3,3.3173244E-3],"categories":[],"categories_nodes":[],"categories_segments":[],"categories_sizes":[],"default_left":[0,0,0,0,0,0,0,0,0,0,0,0,0,0,0,0,0,0,0,0,0,0,0,0,0,0,0,0,0],"id":47,"left_children":[1,3,5,-1,7,9,11,13,15,17,19,21,-1,-1,-1,23,-1,-1,-1,25,27,-1,-1,-1,-1,-1,-1,-1,-1],"loss_changes":[1.6971664E0,2.239378E0,1.1504353E0,0E0,1.5034676E-2,1.0949004E-1,7.1766973E-3,4.230976E-3,2.9540062E-4,1.1519295E-1,3.546226E-2,5.0628185E-4,0E0,0E0,0E0,7.31349E-5,0E0,0E0,0E0,6.6117644E-2,4.2535618E-2,0E0,0E0,0E0,0E0,0E0,0E0,0E0,0E0],"parents":[2147483647,0,0,1,1,2,2,4,4,5,5,6,6,7,7,8,8,9,9,10,10,11,11,15,15,19,19,20,20],"right_children":[2,4,6,-1,8,10,12,14,16,18,20,22,-1,-1,-1,24,-1,-1,-1,26,28,-1,-1,-1,-1,-1,-1,-1,-1],"split_conditions":[5.1557345E0,4.5E1,1.5E1,1.6433448E-3,1.2300562E1,3.55E1,1.4E-1,5.230829E0,1.8841028E1,5.5253186E0,6.73E1,7.55E1,-3.1533036E-3,-3.286105E-3,-3.925492E-3,1.29E1,-2.8756943E-3,1.694068E-3,6.3471026E-3,4.53E1,8E1,-4.845693E-3,-3.5715064E-3,-3.20433E-3,-9.1743097E-4,1.5438834E-3,2.6314345E-3,1.034051E-3,3.3173244E-3],"split_indices":[3,2,0,0,1,2,13,1,9,3,2,10,0,0,0,0,0,0,0,2,10,0,0,0,0,0,0,0,0],"split_type":[0,0,0,0,0,0,0,0,0,0,0,0,0,0,0,0,0,0,0,0,0,0,0,0,0,0,0,0,0],"sum_hessian":[1.891E3,9.86E2,9.05E2,3.7E2,6.16E2,8.18E2,8.7E1,2.3E2,3.86E2,5.5E1,7.63E2,4.8E1,3.9E1,1.12E2,1.18E2,2.02E2,1.84E2,2.5E1,3E1,5.88E2,1.75E2,2.7E1,2.1E1,2.01E2,1E0,2.47E2,3.41E2,1.52E2,2.3E1],"tree_param":{"num_deleted":"0","num_feature":"16","num_nodes":"29","size_leaf_vector":"1"}},{"base_weights":[-1.376486E-4,3.4176044E-2,-1.9107021E-2,2.954322E-2,6.5147966E-2,-1.4905632E-2,-7.173887E-2,3.0485913E-2,-3.3568114E-3,1.0168891E-1,1.5184119E-3,-2.2424815E-2,3.1932764E-2,-5.7121377E-2,-8.1322394E-2,1.5087532E-3,4.1818354E-2,1.7075241E-3,6.227627E-3,-7.919772E-3,-3.7274547E-2,2.0285241E-2,4.8106406E-2,-1.5500042E-3,-2.9610477E-3,-4.37653E-3,-3.0941635E-3,2.4267123E-3,1.2947053E-3,-1.5778238E-3,7.919952E-5,-2.1261412E-3,-2.8886055E-4,-2.7011049E-3,1.2115943E-3,4.244882E-3,1.9519856E-3],"categories":[],"categories_nodes":[],"categories_segments":[],"categories_sizes":[],"default_left":[0,0,0,0,0,0,0,0,0,0,0,0,0,0,0,0,0,0,0,0,0,0,0,0,0,0,0,0,0,0,0,0,0,0,0,0,0],"id":48,"left_children":[1,3,5,7,9,11,13,15,-1,17,-1,19,21,23,25,-1,27,-1,-1,29,31,33,35,-1,-1,-1,-1,-1,-1,-1,-1,-1,-1,-1,-1,-1,-1],"loss_changes":[1.234126E0,9.49294E-2,2.6892665E-1,5.572766E-2,1.074788E-1,3.9939114E-1,7.9625845E-3,7.953644E-4,0E0,6.060171E-2,0E0,2.0993128E-1,2.860023E-2,3.0303E-4,8.587837E-4,0E0,1.3353862E-4,0E0,0E0,1.112456E-1,7.943219E-2,2.8582677E-2,1.8368006E-2,0E0,0E0,0E0,0E0,0E0,0E0,0E0,0E0,0E0,0E0,0E0,0E0,0E0,0E0],"parents":[2147483647,0,0,1,1,2,2,3,3,4,4,5,5,6,6,7,7,9,9,11,11,12,12,13,13,14,14,16,16,19,19,20,20,21,21,22,22],"right_children":[2,4,6,8,10,12,14,16,-1,18,-1,20,22,24,26,-1,28,-1,-1,30,32,34,36,-1,-1,-1,-1,-1,-1,-1,-1,-1,-1,-1,-1,-1,-1],"split_conditions":[4.5E1,2.6438196E1,1.5E1,1.44E1,3.55E1,6.62E1,2.6E1,1.25E1,-3.3568114E-3,2.96E1,1.5184119E-3,1.2352503E1,1.21E1,6.62E1,7.88E1,1.5087532E-3,3.4E1,1.7075241E-3,6.227627E-3,5.04E1,6.42E1,5.58E1,6.55E1,-1.5500042E-3,-2.9610477E-3,-4.37653E-3,-3.0941635E-3,2.4267123E-3,1.2947053E-3,-1.5778238E-3,7.919952E-5,-2.1261412E-3,-2.8886055E-4,-2.7011049E-3,1.2115943E-3,4.244882E-3,1.9519856E-3],"split_indices":[2,1,0,0,2,10,15,0,0,2,0,1,0,8,10,0,15,0,0,2,2,2,2,0,0,0,0,0,0,0,0,0,0,0,0,0,0],"split_type":[0,0,0,0,0,0,0,0,0,0,0,0,0,0,0,0,0,0,0,0,0,0,0,0,0,0,0,0,0,0,0,0,0,0,0,0,0],"sum_hessian":[1.894E3,6.74E2,1.22E3,5.88E2,8.6E1,1.131E3,8.9E1,5.83E2,5E0,4.1E1,4.5E1,9.75E2,1.56E2,3.8E1,5.1E1,5.71E2,1.2E1,1.1E1,3E1,4.94E2,4.81E2,9.2E1,6.4E1,4E0,3.4E1,3.6E1,1.5E1,7E0,5E0,1.41E2,3.53E2,4.12E2,6.9E1,4E0,8.8E1,1.1E1,5.3E1],"tree_param":{"num_deleted":"0","num_feature":"16","num_nodes":"37","size_leaf_vector":"1"}},{"base_weights":[-5.436434E-5,-2.7162768E-2,2.9491477E-2,2.9746467E-2,-6.0664915E-2,4.0468868E-2,-6.9991E-2,1.4542287E-3,1.7904077E-3,-6.8304606E-2,-5.5737894E-2,7.6983966E-2,3.7596013E-2,-4.4920137E-3,-6.2360216E-2,-6.1646182E-2,-7.3335834E-2,-5.862986E-2,-2.6223015E-3,1.4961272E-3,5.9262905E-3,2.7463019E-2,4.2128693E-2,-3.176884E-3,-1.729058E-3,-3.1115317E-3,-1.5300347E-3,-3.6792082E-3,-1.0201039E-3,-2.9384387E-3,-7.8508194E-4,1.6228961E-3,1.3336886E-3,2.5020514E-3,1.2704933E-3],"categories":[],"categories_nodes":[],"categories_segments":[],"categories_sizes":[],"default_left":[0,0,0,0,0,0,0,0,0,0,0,0,0,0,0,0,0,0,0,0,0,0,0,0,0,0,0,0,0,0,0,0,0,0,0],"id":49,"left_children":[1,3,5,7,9,11,13,-1,-1,15,17,19,21,-1,23,25,27,29,-1,-1,-1,31,33,-1,-1,-1,-1,-1,-1,-1,-1,-1,-1,-1,-1],"loss_changes":[1.5265929E0,1.8969465E0,9.9878913E-1,4.39018E-4,1.9756079E-2,8.333552E-2,8.180916E-3,0E0,0E0,3.5526752E-3,5.9974194E-4,1.1179945E-1,3.3933282E-2,0E0,5.966425E-5,9.161234E-5,2.3388863E-4,2.5200844E-4,0E0,0E0,0E0,7.6413155E-5,6.831044E-2,0E0,0E0,0E0,0E0,0E0,0E0,0E0,0E0,0E0,0E0,0E0,0E0],"parents":[2147483647,0,0,1,1,2,2,3,3,4,4,5,5,6,6,9,9,10,10,11,11,12,12,14,14,15,15,16,16,17,17,21,21,22,22],"right_children":[2,4,6,8,10,12,14,-1,-1,16,18,20,22,-1,24,26,28,30,-1,-1,-1,32,34,-1,-1,-1,-1,-1,-1,-1,-1,-1,-1,-1,-1],"split_conditions":[5.1557345E0,4.5E1,1.5E1,4.56E1,1.2391687E1,3.55E1,6.9666664E1,1.4542287E-3,1.7904077E-3,5.230829E0,1.8841028E1,5.5253186E0,4.43E1,-4.4920137E-3,2.44E1,1.41E1,1.36E1,1.29E1,-2.6223015E-3,1.4961272E-3,5.9262905E-3,-7.5184693E0,6.73E1,-3.176884E-3,-1.729058E-3,-3.1115317E-3,-1.5300347E-3,-3.6792082E-3,-1.0201039E-3,-2.9384387E-3,-7.8508194E-4,1.6228961E-3,1.3336886E-3,2.5020514E-3,1.2704933E-3],"split_indices":[3,2,0,8,1,2,10,0,0,1,9,3,2,0,0,0,0,0,0,0,0,1,2,0,0,0,0,0,0,0,0,0,0,0,0],"split_type":[0,0,0,0,0,0,0,0,0,0,0,0,0,0,0,0,0,0,0,0,0,0,0,0,0,0,0,0,0,0,0,0,0,0,0],"sum_hessian":[1.904E3,9.93E2,9.11E2,3.68E2,6.25E2,8.21E2,9E1,3.37E2,3.1E1,2.4E2,3.85E2,5.8E1,7.63E2,2.2E1,6.8E1,1.09E2,1.31E2,1.96E2,1.89E2,2.8E1,3E1,2.38E2,5.25E2,6.4E1,4E0,1.06E2,3E0,1.3E2,1E0,1.95E2,1E0,2.7E1,2.11E2,3.55E2,1.7E2],"tree_param":{"num_deleted":"0","num_feature":"16","num_nodes":"35","size_leaf_vector":"1"}},{"base_weights":[-6.000066E-4,3.053408E-2,-1.7659986E-2,2.6705777E-2,5.7105426E-2,-1.3822812E-2,-6.553601E-2,2.7560806E-2,-3.062655E-3,8.89945E-2,1.3745284E-3,-2.0538889E-2,3.314549E-2,-7.658664E-2,-2.653034E-3,1.3636324E-3,1.908203E-3,1.5606907E-3,5.491749E-3,-7.5898664E-3,-3.3420935E-2,2.4566203E-2,5.4623008E-2,-4.9670744E-3,-6.91819E-2,-1.4252204E-3,1.4607998E-4,5.525406E-4,-1.8141534E-3,3.0108036E-3,9.851034E-4,3.1158584E-3,8.0283586E-4,-2.7587344E-3,-4.2496696E-3],"categories":[],"categories_nodes":[],"categories_segments":[],"categories_sizes":[],"default_left":[0,0,0,0,0,0,0,0,0,0,0,0,0,0,0,0,0,0,0,0,0,0,0,0,0,0,0,0,0,0,0,0,0,0,0],"id":50,"left_children":[1,3,5,7,9,11,13,15,-1,17,-1,19,21,23,-1,-1,-1,-1,-1,25,27,29,31,-1,33,-1,-1,-1,-1,-1,-1,-1,-1,-1,-1],"loss_changes":[1.0113117E0,6.703639E-2,2.2505572E-1,4.6135783E-2,7.68823E-2,3.6028552E-1,8.481532E-3,7.496476E-4,0E0,4.473871E-2,0E0,1.6622266E-1,2.5007576E-2,8.780658E-4,0E0,0E0,0E0,0E0,0E0,1.0978468E-1,6.4042985E-2,1.684782E-2,1.0868788E-2,0E0,3.726557E-3,0E0,0E0,0E0,0E0,0E0,0E0,0E0,0E0,0E0,0E0],"parents":[2147483647,0,0,1,1,2,2,3,3,4,4,5,5,6,6,7,7,9,9,11,11,12,12,13,13,19,19,20,20,21,21,22,22,24,24],"right_children":[2,4,6,8,10,12,14,16,-1,18,-1,20,22,24,-1,-1,-1,-1,-1,26,28,30,32,-1,34,-1,-1,-1,-1,-1,-1,-1,-1,-1,-1],"split_conditions":[4.5E1,2.6438196E1,1.5E1,1.44E1,3.55E1,6.76E1,1.8E-1,5.99E1,-3.062655E-3,2.96E1,1.3745284E-3,1.2352503E1,7.75E1,8.3787435E-1,-2.653034E-3,1.3636324E-3,1.908203E-3,1.5606907E-3,5.491749E-3,5.230829E0,4.64E1,6.5933334E1,1.8706995E1,-4.9670744E-3,1.7403528E1,-1.4252204E-3,1.4607998E-4,5.525406E-4,-1.8141534E-3,3.0108036E-3,9.851034E-4,3.1158584E-3,8.0283586E-4,-2.7587344E-3,-4.2496696E-3],"split_indices":[2,1,0,0,2,10,14,10,0,2,0,1,10,7,0,0,0,0,0,1,2,8,1,0,1,0,0,0,0,0,0,0,0,0,0],"split_type":[0,0,0,0,0,0,0,0,0,0,0,0,0,0,0,0,0,0,0,0,0,0,0,0,0,0,0,0,0,0,0,0,0,0,0],"sum_hessian":[1.902E3,6.73E2,1.229E3,5.9E2,8.3E1,1.139E3,9E1,5.85E2,5E0,3.9E1,4.4E1,9.97E2,1.42E2,4.5E1,4.5E1,5.73E2,1.2E1,1.1E1,2.8E1,4.98E2,4.99E2,1.03E2,3.9E1,8E0,3.7E1,1.66E2,3.32E2,3E1,4.69E2,1.1E1,9.2E1,3.2E1,7E0,2.2E1,1.5E1],"tree_param":{"num_deleted":"0","num_feature":"16","num_nodes":"35","size_leaf_vector":"1"}},{"base_weights":[-6.154916E-4,-2.5971621E-2,2.754922E-2,2.705744E-2,-5.6173075E-2,3.731907E-2,-6.4675875E-2,2.6360454E-2,1.6144061E-3,-6.378041E-2,-5.126958E-2,6.617165E-2,3.4877654E-2,-7.37406E-2,-2.593046E-3,1.3080843E-3,2.2640482E-3,-5.6736033E-2,-6.9721125E-2,-5.3872786E-2,-2.419505E-3,1.3593666E-3,5.2139484E-3,2.496858E-2,3.928451E-2,-8.576963E-2,-6.2085245E-2,-2.8746794E-3,-1.4134075E-3,-3.4989286E-3,-9.2563295E-4,-2.7003095E-3,-6.964865E-4,1.5270858E-3,1.2029194E-3,2.3704467E-3,1.1521673E-3,-8.1976503E-4,-4.420929E-3,-8.1976503E-4,-3.1585116E-3],"categories":[],"categories_nodes":[],"categories_segments":[],"categories_sizes":[],"default_left":[0,0,0,0,0,0,0,0,0,0,0,0,0,0,0,0,0,0,0,0,0,0,0,0,0,0,0,0,0,0,0,0,0,0,0,0,0,0,0,0,0],"id":51,"left_children":[1,3,5,7,9,11,13,15,-1,17,19,21,23,25,-1,-1,-1,27,29,31,-1,-1,-1,33,35,37,39,-1,-1,-1,-1,-1,-1,-1,-1,-1,-1,-1,-1,-1,-1],"loss_changes":[1.3475989E0,1.5918636E0,8.0793023E-1,4.6497583E-4,2.0342588E-2,5.4679036E-2,6.1658323E-3,3.387034E-5,0E0,6.2553883E-3,3.1650066E-4,8.927137E-2,3.168273E-2,1.4047325E-3,0E0,0E0,0E0,8.97944E-4,3.9196014E-4,2.9212236E-4,0E0,0E0,0E0,4.4713914E-4,6.699383E-2,2.4095029E-3,3.5235286E-4,0E0,0E0,0E0,0E0,0E0,0E0,0E0,0E0,0E0,0E0,0E0,0E0,0E0,0E0],"parents":[2147483647,0,0,1,1,2,2,3,3,4,4,5,5,6,6,7,7,9,9,10,10,11,11,12,12,13,13,17,17,18,18,19,19,23,23,24,24,25,25,26,26],"right_children":[2,4,6,8,10,12,14,16,-1,18,20,22,24,26,-1,-1,-1,28,30,32,-1,-1,-1,34,36,38,40,-1,-1,-1,-1,-1,-1,-1,-1,-1,-1,-1,-1,-1,-1],"split_conditions":[5.1557345E0,4.5E1,1.5E1,4.5E1,1.2391687E1,3.55E1,2.2999999E-1,1.35E1,1.6144061E-3,5.230829E0,1.8895481E1,5.5253186E0,4.43E1,1.76E1,-2.593046E-3,1.3080843E-3,2.2640482E-3,1.41E1,1.36E1,1.29E1,-2.419505E-3,1.3593666E-3,5.2139484E-3,-7.5184693E0,6.73E1,1E0,1.8E1,-2.8746794E-3,-1.4134075E-3,-3.4989286E-3,-9.2563295E-4,-2.7003095E-3,-6.964865E-4,1.5270858E-3,1.2029194E-3,2.3704467E-3,1.1521673E-3,-8.1976503E-4,-4.420929E-3,-8.1976503E-4,-3.1585116E-3],"split_indices":[3,2,0,8,1,2,14,0,0,1,7,3,2,0,0,0,0,0,0,0,0,0,0,1,2,4,0,0,0,0,0,0,0,0,0,0,0,0,0,0,0],"split_type":[0,0,0,0,0,0,0,0,0,0,0,0,0,0,0,0,0,0,0,0,0,0,0,0,0,0,0,0,0,0,0,0,0,0,0,0,0,0,0,0,0],"sum_hessian":[1.885E3,9.92E2,8.93E2,3.6E2,6.32E2,8.08E2,8.5E1,3.23E2,3.7E1,2.43E2,3.89E2,6.1E1,7.47E2,4.7E1,3.8E1,3.22E2,1E0,1.16E2,1.27E2,1.95E2,1.94E2,3.1E1,3E1,2.32E2,5.15E2,2E1,2.7E1,1.12E2,4E0,1.26E2,1E0,1.94E2,1E0,2.8E1,2.04E2,3.42E2,1.73E2,1E0,1.9E1,1E0,2.6E1],"tree_param":{"num_deleted":"0","num_feature":"16","num_nodes":"41","size_leaf_vector":"1"}},{"base_weights":[-4.6364818E-4,-2.5605718E-2,2.526672E-2,2.5504304E-2,-5.3286824E-2,3.3890035E-2,-5.9770066E-2,1.4318266E-3,2.4582772E-2,-6.0442563E-2,-4.8790175E-2,5.7251174E-2,3.1733945E-2,-3.604997E-3,-2.6181014E-3,1.2172515E-3,2.2074475E-3,-5.4443397E-2,-6.547049E-2,-5.1345475E-2,-2.29218E-3,1.290996E-3,4.9673277E-3,-3.1033831E-3,3.2931406E-2,-2.7481685E-3,-1.3201669E-3,-3.2854637E-3,-9.024921E-4,-2.5733497E-3,-6.790744E-4,-3.2971434E-3,1.3413012E-3,1.1828352E-3,1.863985E-3],"categories":[],"categories_nodes":[],"categories_segments":[],"categories_sizes":[],"default_left":[0,0,0,0,0,0,0,0,0,0,0,0,0,0,0,0,0,0,0,0,0,0,0,0,0,0,0,0,0,0,0,0,0,0,0],"id":52,"left_children":[1,3,5,7,9,11,13,-1,15,17,19,21,23,-1,-1,-1,-1,25,27,29,-1,-1,-1,31,33,-1,-1,-1,-1,-1,-1,-1,-1,-1,-1],"loss_changes":[1.2317257E0,1.3637941E0,6.920599E-1,2.745539E-4,1.7161608E-2,4.124844E-2,4.171282E-3,0E0,1.7650425E-4,3.5843253E-3,5.750656E-4,9.137572E-2,3.284961E-2,0E0,0E0,0E0,0E0,2.1088123E-4,2.1803379E-4,2.1880865E-4,0E0,0E0,0E0,5.2549195E-2,2.9727876E-2,0E0,0E0,0E0,0E0,0E0,0E0,0E0,0E0,0E0,0E0],"parents":[2147483647,0,0,1,1,2,2,3,3,4,4,5,5,6,6,8,8,9,9,10,10,11,11,12,12,17,17,18,18,19,19,23,23,24,24],"right_children":[2,4,6,8,10,12,14,-1,16,18,20,22,24,-1,-1,-1,-1,26,28,30,-1,-1,-1,32,34,-1,-1,-1,-1,-1,-1,-1,-1,-1,-1],"split_conditions":[5.096111E0,4.5E1,1.5E1,2E0,1.2391687E1,3.55E1,3E-2,1.4318266E-3,1.35E1,5.230829E0,1.8841028E1,5.5253186E0,5.1557345E0,-3.604997E-3,-2.6181014E-3,1.2172515E-3,2.2074475E-3,1.41E1,1.36E1,1.29E1,-2.29218E-3,1.290996E-3,4.9673277E-3,6.605829E0,4.43E1,-2.7481685E-3,-1.3201669E-3,-3.2854637E-3,-9.024921E-4,-2.5733497E-3,-6.790744E-4,-3.2971434E-3,1.3413012E-3,1.1828352E-3,1.863985E-3],"split_indices":[3,2,0,4,1,2,13,0,0,1,9,3,3,0,0,0,0,0,0,0,0,0,0,1,2,0,0,0,0,0,0,0,0,0,0],"split_type":[0,0,0,0,0,0,0,0,0,0,0,0,0,0,0,0,0,0,0,0,0,0,0,0,0,0,0,0,0,0,0,0,0,0,0],"sum_hessian":[1.902E3,9.62E2,9.4E2,3.38E2,6.24E2,8.54E2,8.6E1,7E1,2.68E2,2.36E2,3.88E2,7E1,7.84E2,2.9E1,5.7E1,2.67E2,1E0,1.13E2,1.23E2,1.99E2,1.89E2,4.1E1,2.9E1,2.6E1,7.58E2,1.1E2,3E0,1.22E2,1E0,1.98E2,1E0,8E0,1.8E1,2.44E2,5.14E2],"tree_param":{"num_deleted":"0","num_feature":"16","num_nodes":"35","size_leaf_vector":"1"}},{"base_weights":[3.4475487E-4,2.6621135E-2,-1.44481575E-2,2.2901619E-2,5.1230237E-2,-1.1176874E-2,-5.521502E-2,2.3642227E-2,-2.6932564E-3,8.12995E-2,1.1926168E-3,-1.6393023E-2,2.6914159E-2,-6.367725E-2,-4.492093E-2,2.3357453E-2,3.450697E-2,1.3558313E-3,9.738426E-2,-1.02351615E-2,-3.7927005E-2,1.927334E-2,4.7603283E-2,-6.44858E-2,-6.6209753E-4,-1.0905791E-3,-2.3039933E-3,1.148851E-3,1.3422768E-3,1.9491384E-3,9.774566E-4,7.113023E-3,4.391818E-3,-6.9295074E-4,1.7732546E-3,1.3108932E-3,-2.0714249E-3,3.4145098E-3,8.274002E-4,2.7793052E-3,6.357577E-4,-3.45962E-3,-2.360789E-3],"categories":[],"categories_nodes":[],"categories_segments":[],"categories_sizes":[],"default_left":[0,0,0,0,0,0,0,0,0,0,0,0,0,0,0,0,0,0,0,0,0,0,0,0,0,0,0,0,0,0,0,0,0,0,0,0,0,0,0,0,0,0,0],"id":53,"left_children":[1,3,5,7,9,11,13,15,-1,17,-1,19,21,23,25,27,29,-1,31,33,35,37,39,41,-1,-1,-1,-1,-1,-1,-1,-1,-1,-1,-1,-1,-1,-1,-1,-1,-1,-1,-1],"loss_changes":[7.381452E-1,6.1435968E-2,1.6141528E-1,3.5158455E-2,7.132858E-2,2.2416447E-1,4.979521E-3,1.0225475E-3,0E0,3.3963025E-2,0E0,1.3102162E-1,2.0581655E-2,1.0627359E-3,1.7335266E-4,1.51515E-4,1.08249485E-4,0E0,1.2155175E-3,1.2834322E-1,5.0498724E-2,1.2362264E-2,9.31941E-3,4.720539E-4,0E0,0E0,0E0,0E0,0E0,0E0,0E0,0E0,0E0,0E0,0E0,0E0,0E0,0E0,0E0,0E0,0E0,0E0,0E0],"parents":[2147483647,0,0,1,1,2,2,3,3,4,4,5,5,6,6,7,7,9,9,11,11,12,12,13,13,14,14,15,15,16,16,18,18,19,19,20,20,21,21,22,22,23,23],"right_children":[2,4,6,8,10,12,14,16,-1,18,-1,20,22,24,26,28,30,-1,32,34,36,38,40,42,-1,-1,-1,-1,-1,-1,-1,-1,-1,-1,-1,-1,-1,-1,-1,-1,-1,-1,-1],"split_conditions":[4.5E1,2.6438196E1,1.5E1,1.44E1,3.55E1,6.76E1,1.8E-1,1.25E1,-2.6932564E-3,2.96E1,1.1926168E-3,2.0269495E1,7.75E1,3.6E1,5.9E1,4.5E1,3.4E1,1.3558313E-3,2.6250696E1,1.8438196E1,4.53E1,-6.1678834E0,1.8706995E1,7.88E1,-6.6209753E-4,-1.0905791E-3,-2.3039933E-3,1.148851E-3,1.3422768E-3,1.9491384E-3,9.774566E-4,7.113023E-3,4.391818E-3,-6.9295074E-4,1.7732546E-3,1.3108932E-3,-2.0714249E-3,3.4145098E-3,8.274002E-4,2.7793052E-3,6.357577E-4,-3.45962E-3,-2.360789E-3],"split_indices":[2,1,0,0,2,10,14,0,0,2,0,1,10,15,2,8,15,0,7,1,2,1,1,10,0,0,0,0,0,0,0,0,0,0,0,0,0,0,0,0,0,0,0],"split_type":[0,0,0,0,0,0,0,0,0,0,0,0,0,0,0,0,0,0,0,0,0,0,0,0,0,0,0,0,0,0,0,0,0,0,0,0,0,0,0,0,0,0,0],"sum_hessian":[1.897E3,6.83E2,1.214E3,5.95E2,8.8E1,1.125E3,8.9E1,5.9E2,5E0,4.1E1,4.7E1,9.9E2,1.35E2,4.6E1,4.3E1,5.78E2,1.2E1,1E1,3.1E1,7.71E2,2.19E2,1E2,3.5E1,4.5E1,1E0,3E0,4E1,5.28E2,5E1,8E0,4E0,3E0,2.8E1,7.15E2,5.6E1,1.1E1,2.08E2,4E0,9.6E1,2.8E1,7E0,3.3E1,1.2E1],"tree_param":{"num_deleted":"0","num_feature":"16","num_nodes":"43","size_leaf_vector":"1"}},{"base_weights":[-1.671628E-4,-2.3146281E-2,2.4512442E-2,2.2987438E-2,-4.9903713E-2,3.2768E-2,-1.2481869E-3,1.1227468E-3,2.7479744E-2,-5.7260517E-2,-4.5041975E-2,1.0907346E-2,3.667702E-2,2.752048E-3,-2.2928085E-2,1.52833E-3,1.044331E-3,-5.0892815E-2,-3.1251002E-3,-2.4149858E-3,-2.0738486E-3,1.8263755E-2,-1.8345313E-2,5.939785E-2,3.4040622E-2,1.0279417E-2,-9.453179E-3,2.0370602E-3,-2.5998982E-2,-2.5750406E-3,-1.0496824E-3,1.5716089E-3,7.4024004E-4,6.1057514E-4,-2.8117322E-3,1.1882157E-3,4.4917283E-3,1.0394809E-3,2.1495277E-3,-2.0376085E-3,6.932381E-4,3.3395607E-3,-6.2708155E-4,-1.7294225E-3,8.519013E-5],"categories":[],"categories_nodes":[],"categories_segments":[],"categories_sizes":[],"default_left":[0,0,0,0,0,0,0,0,0,0,0,0,0,0,0,0,0,0,0,0,0,0,0,0,0,0,0,0,0,0,0,0,0,0,0,0,0,0,0,0,0,0,0,0,0],"id":54,"left_children":[1,3,5,7,9,11,13,-1,15,17,19,21,23,25,27,-1,-1,29,-1,-1,-1,31,33,35,37,39,41,-1,43,-1,-1,-1,-1,-1,-1,-1,-1,-1,-1,-1,-1,-1,-1,-1,-1],"loss_changes":[1.0809225E0,1.2195195E0,1.9548315E-1,2.5130808E-4,1.9775152E-2,5.9075773E-2,1.948943E-2,0E0,5.3534284E-5,4.9961805E-3,2.421558E-3,2.336087E-2,3.331971E-2,1.7553091E-2,7.902494E-3,0E0,0E0,1.0275245E-3,0E0,0E0,0E0,3.451867E-3,2.6157811E-2,6.293923E-2,6.2080443E-2,2.2154987E-2,1.8027497E-2,0E0,8.1493035E-3,0E0,0E0,0E0,0E0,0E0,0E0,0E0,0E0,0E0,0E0,0E0,0E0,0E0,0E0,0E0,0E0],"parents":[2147483647,0,0,1,1,2,2,3,3,4,4,5,5,6,6,8,8,9,9,10,10,11,11,12,12,13,13,14,14,17,17,21,21,22,22,23,23,24,24,25,25,26,26,28,28],"right_children":[2,4,6,8,10,12,14,-1,16,18,20,22,24,26,28,-1,-1,30,-1,-1,-1,32,34,36,38,40,42,-1,44,-1,-1,-1,-1,-1,-1,-1,-1,-1,-1,-1,-1,-1,-1,-1,-1],"split_conditions":[5.1557345E0,4.5E1,6.73E1,4.5E1,1.2391687E1,-5.9559693E0,1.16E0,1.1227468E-3,9.1E1,5.230829E0,1.8895481E1,3.547296E0,3.55E1,2.9E1,1.39E0,1.52833E-3,1.044331E-3,3.02E0,-3.1251002E-3,-2.4149858E-3,-2.0738486E-3,-8.417883E0,9.126358E0,5.5253186E0,4.53E1,-6.1678834E0,5.16E1,2.0370602E-3,1.4849999E1,-2.5750406E-3,-1.0496824E-3,1.5716089E-3,7.4024004E-4,6.1057514E-4,-2.8117322E-3,1.1882157E-3,4.4917283E-3,1.0394809E-3,2.1495277E-3,-2.0376085E-3,6.932381E-4,3.3395607E-3,-6.2708155E-4,-1.7294225E-3,8.519013E-5],"split_indices":[3,2,8,8,1,1,13,0,15,1,7,9,2,15,14,0,0,14,0,0,0,1,3,3,2,1,2,0,12,0,0,0,0,0,0,0,0,0,0,0,0,0,0,0,0],"split_type":[0,0,0,0,0,0,0,0,0,0,0,0,0,0,0,0,0,0,0,0,0,0,0,0,0,0,0,0,0,0,0,0,0,0,0,0,0,0,0,0,0,0,0,0,0],"sum_hessian":[1.904E3,9.86E2,9.18E2,3.62E2,6.24E2,6.95E2,2.23E2,3.29E2,3.3E1,2.44E2,3.8E2,1.06E2,5.89E2,1.89E2,3.4E1,2E1,1.3E1,1.15E2,1.29E2,1.92E2,1.88E2,8.5E1,2.1E1,5.9E1,5.3E2,1.17E2,7.2E1,1E0,3.3E1,1.12E2,3E0,1.6E1,6.9E1,1.2E1,9E0,2.8E1,3.1E1,2.15E2,3.15E2,7E0,1.1E2,2E0,7E1,2.5E1,8E0],"tree_param":{"num_deleted":"0","num_feature":"16","num_nodes":"45","size_leaf_vector":"1"}},{"base_weights":[-4.0974742E-4,-2.190962E-2,2.2909796E-2,2.200315E-2,-4.749029E-2,3.1414002E-2,-5.3973276E-2,2.1835063E-2,2.0754635E-3,-5.486515E-2,-4.2955235E-2,3.501791E-2,1.8218908E-2,-7.3121995E-2,-4.754938E-2,1.0645837E-3,2.6179424E-2,-4.865431E-2,-6.007449E-2,-4.5950495E-2,-1.9822146E-3,2.7319089E-2,4.158872E-2,1.1390602E-2,4.3932438E-2,-4.4521127E-2,-4.0797135E-3,-4.305941E-2,-2.8785719E-3,1.4580992E-3,1.0029853E-3,-2.452753E-3,-8.8711147E-4,-3.0166188E-3,-7.153118E-4,-2.3032175E-3,-5.851704E-4,2.732245E-3,1.032852E-3,1.0622309E-3,2.2686913E-3,2.0641572E-5,7.5575034E-4,2.958669E-3,7.3335407E-4,-8.299322E-4,-2.6185196E-3,-2.2928226E-3,-1.4840744E-3],"categories":[],"categories_nodes":[],"categories_segments":[],"categories_sizes":[],"default_left":[0,0,0,0,0,0,0,0,0,0,0,0,0,0,0,0,0,0,0,0,0,0,0,0,0,0,0,0,0,0,0,0,0,0,0,0,0,0,0,0,0,0,0,0,0,0,0,0,0],"id":55,"left_children":[1,3,5,7,9,11,13,15,-1,17,19,21,23,25,27,-1,29,31,33,35,-1,37,39,41,43,45,-1,47,-1,-1,-1,-1,-1,-1,-1,-1,-1,-1,-1,-1,-1,-1,-1,-1,-1,-1,-1,-1,-1],"loss_changes":[9.510942E-1,1.1097598E0,5.966804E-1,2.8711557E-4,1.8513322E-2,3.8356245E-2,7.7169538E-3,2.9951334E-4,0E0,4.64803E-3,2.055943E-3,3.139162E-2,3.0752804E-2,1.4559254E-3,7.159114E-4,0E0,7.2110444E-5,5.170703E-4,5.886555E-4,2.3680925E-4,0E0,5.330293E-2,2.5602639E-2,5.7995245E-3,1.5635267E-2,6.649187E-4,0E0,6.221011E-4,0E0,0E0,0E0,0E0,0E0,0E0,0E0,0E0,0E0,0E0,0E0,0E0,0E0,0E0,0E0,0E0,0E0,0E0,0E0,0E0,0E0],"parents":[2147483647,0,0,1,1,2,2,3,3,4,4,5,5,6,6,7,7,9,9,10,10,11,11,12,12,13,13,14,14,16,16,17,17,18,18,19,19,21,21,22,22,23,23,24,24,25,25,27,27],"right_children":[2,4,6,8,10,12,14,16,-1,18,20,22,24,26,28,-1,30,32,34,36,-1,38,40,42,44,46,-1,48,-1,-1,-1,-1,-1,-1,-1,-1,-1,-1,-1,-1,-1,-1,-1,-1,-1,-1,-1,-1,-1],"split_conditions":[5.1557345E0,4.5E1,1.5E1,1.35E1,1.2300562E1,6.73E1,6.9666664E1,4.5E1,2.0754635E-3,5.230829E0,1.8841028E1,4.53E1,7.75E1,2E0,1.6528528E1,1.0645837E-3,9.1E1,1.51E1,1.36E1,1.29E1,-1.9822146E-3,3.55E1,-5.9559693E0,6.44E1,1.06216E1,1.8E1,-4.0797135E-3,2.2E1,-2.8785719E-3,1.4580992E-3,1.0029853E-3,-2.452753E-3,-8.8711147E-4,-3.0166188E-3,-7.153118E-4,-2.3032175E-3,-5.851704E-4,2.732245E-3,1.032852E-3,1.0622309E-3,2.2686913E-3,2.0641572E-5,7.5575034E-4,2.958669E-3,7.3335407E-4,-8.299322E-4,-2.6185196E-3,-2.2928226E-3,-1.4840744E-3],"split_indices":[3,2,0,0,1,2,10,8,0,1,1,2,10,4,1,0,15,0,0,0,0,2,7,10,3,0,0,4,0,0,0,0,0,0,0,0,0,0,0,0,0,0,0,0,0,0,0,0,0],"split_type":[0,0,0,0,0,0,0,0,0,0,0,0,0,0,0,0,0,0,0,0,0,0,0,0,0,0,0,0,0,0,0,0,0,0,0,0,0,0,0,0,0,0,0,0,0,0,0,0,0],"sum_hessian":[1.895E3,9.86E2,9.09E2,3.63E2,6.23E2,8.19E2,9E1,3.62E2,1E0,2.33E2,3.9E2,6.42E2,1.77E2,2E1,7E1,3.27E2,3.5E1,1.11E2,1.22E2,1.98E2,1.92E2,2.98E2,3.44E2,1.41E2,3.6E1,6E0,1.4E1,5.2E1,1.8E1,2.1E1,1.4E1,1.09E2,2E0,1.21E2,1E0,1.97E2,1E0,5.7E1,2.41E2,5.5E1,2.89E2,3.6E1,1.05E2,2.3E1,1.3E1,2E0,4E0,4.1E1,1.1E1],"tree_param":{"num_deleted":"0","num_feature":"16","num_nodes":"49","size_leaf_vector":"1"}},{"base_weights":[-4.6310155E-4,-2.0882959E-2,2.2087643E-2,2.0754265E-2,-4.4934787E-2,3.0115528E-2,-5.149392E-2,1.0111023E-3,1.2670406E-3,-5.1704302E-2,-4.0731538E-2,3.3249397E-2,1.8066542E-2,-6.681903E-2,-4.5464497E-2,-4.5743965E-2,-5.71841E-2,-4.378782E-2,-1.8804895E-3,2.5309065E-2,4.0187035E-2,1.0900678E-2,4.2671632E-2,-4.396275E-2,-3.7035488E-3,-3.9961834E-2,-2.8631354E-3,-2.3166807E-3,-1.1516567E-3,-2.8715106E-3,-6.97429E-4,-2.194851E-3,-5.705412E-4,2.4894965E-3,9.778586E-4,1.0347973E-3,2.1765938E-3,5.4591215E-5,7.1291736E-4,2.8514338E-3,6.9930445E-4,-8.022678E-4,-2.5297161E-3,-2.1561186E-3,-1.3946232E-3],"categories":[],"categories_nodes":[],"categories_segments":[],"categories_sizes":[],"default_left":[0,0,0,0,0,0,0,0,0,0,0,0,0,0,0,0,0,0,0,0,0,0,0,0,0,0,0,0,0,0,0,0,0,0,0,0,0,0,0,0,0,0,0,0,0],"id":56,"left_children":[1,3,5,7,9,11,13,-1,-1,15,17,19,21,23,25,27,29,31,-1,33,35,37,39,41,-1,43,-1,-1,-1,-1,-1,-1,-1,-1,-1,-1,-1,-1,-1,-1,-1,-1,-1,-1,-1],"loss_changes":[8.7307656E-1,9.973766E-1,5.3377545E-1,3.785342E-4,1.5848398E-2,3.009814E-2,5.1858425E-3,0E0,0E0,5.1576495E-3,2.1122694E-3,3.4459054E-2,2.9508695E-2,5.5594E-4,2.0614266E-3,5.263984E-4,4.7579408E-4,1.8143654E-4,0E0,4.1692093E-2,2.1395624E-2,4.3647736E-3,1.4852293E-2,6.6928566E-4,0E0,6.663501E-4,0E0,0E0,0E0,0E0,0E0,0E0,0E0,0E0,0E0,0E0,0E0,0E0,0E0,0E0,0E0,0E0,0E0,0E0,0E0],"parents":[2147483647,0,0,1,1,2,2,3,3,4,4,5,5,6,6,9,9,10,10,11,11,12,12,13,13,14,14,15,15,16,16,17,17,19,19,20,20,21,21,22,22,23,23,25,25],"right_children":[2,4,6,8,10,12,14,-1,-1,16,18,20,22,24,26,28,30,32,-1,34,36,38,40,42,-1,44,-1,-1,-1,-1,-1,-1,-1,-1,-1,-1,-1,-1,-1,-1,-1,-1,-1,-1,-1],"split_conditions":[5.1557345E0,4.5E1,1.5E1,4.5E1,1.2300562E1,6.73E1,6.9666664E1,1.0111023E-3,1.2670406E-3,5.230829E0,1.8841028E1,4.53E1,7.75E1,2E0,1.6528528E1,1.41E1,1.36E1,1.29E1,-1.8804895E-3,3.55E1,-5.9559693E0,6.44E1,1.06216E1,1.8E1,-3.7035488E-3,2.2E1,-2.8631354E-3,-2.3166807E-3,-1.1516567E-3,-2.8715106E-3,-6.97429E-4,-2.194851E-3,-5.705412E-4,2.4894965E-3,9.778586E-4,1.0347973E-3,2.1765938E-3,5.4591215E-5,7.1291736E-4,2.8514338E-3,6.9930445E-4,-8.022678E-4,-2.5297161E-3,-2.1561186E-3,-1.3946232E-3],"split_indices":[3,2,0,8,1,2,10,0,0,1,1,2,10,4,1,0,0,0,0,2,7,10,3,0,0,4,0,0,0,0,0,0,0,0,0,0,0,0,0,0,0,0,0,0,0],"split_type":[0,0,0,0,0,0,0,0,0,0,0,0,0,0,0,0,0,0,0,0,0,0,0,0,0,0,0,0,0,0,0,0,0,0,0,0,0,0,0,0,0,0,0,0,0],"sum_hessian":[1.894E3,9.94E2,9E2,3.64E2,6.3E2,8.12E2,8.8E1,3.31E2,3.3E1,2.37E2,3.93E2,6.43E2,1.69E2,2.2E1,6.6E1,1.18E2,1.19E2,1.92E2,2.01E2,3.02E2,3.41E2,1.32E2,3.7E1,7E0,1.5E1,4.8E1,1.8E1,1.14E2,4E0,1.18E2,1E0,1.91E2,1E0,5.6E1,2.46E2,5.1E1,2.9E2,3.4E1,9.8E1,2.4E1,1.3E1,2E0,5E0,3.6E1,1.2E1],"tree_param":{"num_deleted":"0","num_feature":"16","num_nodes":"45","size_leaf_vector":"1"}},{"base_weights":[-2.611895E-4,-1.9002872E-2,2.1143194E-2,1.9868491E-2,-4.276168E-2,